0.000100 0.000100 0.000100 0.000100 0.000100 0.000100 0.000100 0.000100 0.000100 0.000100 0.000100 0.000100 0.000097 0.000088 0.000093 0.000100 0.000100 0.000100 0.000100 0.000100 0.000100 0.000100 0.000100 0.000100 0.000100 0.000100 0.000100 0.000100 0
0.000100 0.000100 0.000100 0.000100 0.000100 0.000100 0.000079 0.000026 -0.000087 -0.000142 -0.000078 0.000442 0.001110 0.000365 -0.000281 0.000660 0.002266 0.000968 -0.000162 -0.000157 -0.000161 -0.000011 0.000070 0.000098 0.000100 0.000100 0.000100 0.000100 
0.000100 0.000100 0.000100 0.000151 0.000113 0.000096 0.000046 0.000234 -0.001179 -0.003249 -0.004260 -0.004914 -0.006599 -0.009463 -0.012414 -0.013382 -0.012950 -0.013440 -0.012062 -0.009357 -0.005436 -0.002887 -0.001371 -0.000535 -0.000159 0.000097 0.000100 0.000100 
0.000100 0.000100 0.000100 0.000229 -0.000104 -0.001665 -0.002368 -0.003731 -0.005125 -0.012153 -0.016170 -0.020660 -0.027532 -0.031720 -0.039061 -0.037060 -0.036899 -0.043337 -0.046710 -0.041164 -0.034610 -0.026397 -0.016439 -0.006879 -0.002654 -0.000057 0.000097 0.000100 
0.000100 0.000100 0.000100 0.000075 -0.001038 -0.004766 -0.006893 -0.010525 -0.019864 -0.027647 -0.029266 -0.022336 -0.006437 0.010739 0.010501 0.021475 0.007837 0.002240 -0.014578 -0.025901 -0.029026 -0.028555 -0.023852 -0.017511 -0.008004 -0.001534 -0.000155 0.000086 
0.000100 0.000100 0.000070 -0.000170 -0.003844 -0.010785 -0.017287 -0.030812 -0.042056 -0.049931 -0.037582 -0.008878 0.034080 0.083417 0.111290 0.114104 0.106341 0.094032 0.059976 0.024387 -0.004182 -0.013692 -0.022514 -0.030114 -0.022642 -0.009371 -0.001925 -0.000316 
0.000100 0.000100 -0.000029 -0.000984 -0.006400 -0.015064 -0.027278 -0.043274 -0.055537 -0.056138 -0.024471 0.008464 0.039007 0.071304 0.083100 0.112193 0.140777 0.143744 0.119793 0.077101 0.039988 0.027026 0.005047 -0.024124 -0.038163 -0.021178 -0.006287 -0.001554 
0.000096 0.000010 -0.000762 -0.002461 -0.009586 -0.020188 -0.036347 -0.051203 -0.060347 -0.034950 -0.013880 0.003130 0.026241 0.037480 0.064837 0.101694 0.141812 0.161315 0.143987 0.097452 0.057049 0.043366 0.031077 -0.006844 -0.038191 -0.030617 -0.009457 -0.000640 
0.000082 -0.000141 -0.001428 -0.005588 -0.016992 -0.032124 -0.040598 -0.052110 -0.043179 -0.028268 -0.006427 0.011919 0.035479 0.049392 0.074158 0.096157 0.135833 0.150393 0.151469 0.113117 0.073458 0.054435 0.064055 0.028955 -0.026744 -0.035397 -0.008870 -0.000820 
0.000097 -0.000299 -0.001681 -0.008491 -0.022518 -0.035978 -0.032182 -0.032820 -0.033319 -0.021823 0.011602 0.023389 0.050492 0.082382 0.061749 0.048197 0.070597 0.094761 0.134003 0.135585 0.091516 0.078057 0.093612 0.069733 0.000890 -0.030344 -0.007085 -0.000214 
0.000100 -0.000418 -0.001046 -0.009550 -0.023044 -0.030800 -0.019463 -0.009294 -0.013185 -0.005049 0.011655 0.042850 0.067512 0.052466 0.001427 -0.052715 -0.053029 0.005288 0.074119 0.103443 0.102466 0.117614 0.144361 0.117679 0.030773 -0.021386 -0.005631 -0.000072 
0.000071 -0.000243 -0.001867 -0.010827 -0.026701 -0.021278 0.005649 0.017308 0.011563 0.005964 0.031074 0.046232 0.026435 -0.028359 -0.118583 -0.188572 -0.192274 -0.116098 -0.018891 0.066379 0.107534 0.146589 0.188040 0.159719 0.055138 -0.011323 -0.002651 -0.000054 
0.000100 -0.000133 -0.001598 -0.009904 -0.027353 0.000364 0.035144 0.034813 0.027746 0.034170 0.069836 0.046566 -0.004964 -0.116144 -0.235201 -0.289312 -0.285091 -0.198088 -0.079413 0.007859 0.075340 0.136022 0.201284 0.185264 0.083669 -0.000738 -0.000821 0.000077 
0.000100 0.000126 -0.000623 -0.009493 -0.022693 0.028018 0.069887 0.072226 0.057281 0.076947 0.097694 0.040069 -0.054468 -0.202908 -0.304738 -0.342652 -0.324594 -0.226465 -0.106887 -0.032606 0.039141 0.118365 0.188853 0.181728 0.086266 0.002937 -0.000237 0.000089 
0.000070 0.000007 -0.000362 -0.009392 -0.018280 0.064505 0.103931 0.110583 0.103341 0.119272 0.110079 0.017139 -0.130500 -0.272818 -0.348802 -0.365777 -0.331417 -0.212539 -0.088091 -0.014208 0.038705 0.108817 0.157934 0.162629 0.081492 0.000830 -0.000196 0.000099 
0.000089 -0.000002 -0.000419 -0.010795 -0.004031 0.095890 0.123835 0.141834 0.143124 0.150807 0.113905 -0.039629 -0.200959 -0.326253 -0.368607 -0.352427 -0.293244 -0.174608 -0.045307 0.014422 0.050077 0.093587 0.133042 0.136052 0.060784 -0.002819 -0.000744 0.000070 
0.000095 0.000034 -0.000787 -0.012195 0.001183 0.105843 0.144573 0.152052 0.166235 0.164621 0.104069 -0.061059 -0.222509 -0.324502 -0.342744 -0.308127 -0.224207 -0.099399 0.000750 0.041473 0.059138 0.083319 0.106440 0.091517 0.031491 -0.006327 -0.000838 0.000092 
0.000100 0.000062 -0.001141 -0.012222 0.007240 0.106816 0.147469 0.151113 0.162284 0.167390 0.111183 -0.046732 -0.182772 -0.283091 -0.295482 -0.240250 -0.132300 -0.022339 0.026427 0.041930 0.051119 0.066068 0.083588 0.047996 0.011293 -0.005950 -0.000543 -0.000082 
0.000098 0.000095 -0.001359 -0.017560 -0.001215 0.089440 0.132975 0.142181 0.150461 0.147939 0.114685 -0.007576 -0.137639 -0.214753 -0.216030 -0.141692 -0.057589 0.008578 0.020681 0.031442 0.026012 0.045870 0.040981 0.013468 -0.001055 -0.004806 -0.000883 -0.000366 
0.000100 0.000095 -0.003069 -0.020531 -0.013061 0.056802 0.101502 0.119279 0.129055 0.141319 0.132835 0.050830 -0.033943 -0.095085 -0.090564 -0.056404 -0.016820 0.013840 0.017052 0.000215 0.001562 0.016964 0.012395 -0.005227 -0.007107 -0.004739 -0.000558 -0.000031 
0.000100 0.000087 -0.002725 -0.019711 -0.014926 0.036619 0.067642 0.084777 0.096918 0.130026 0.160774 0.121906 0.060914 0.011733 -0.011630 0.001529 -0.000889 0.008115 -0.022289 -0.031273 -0.013562 -0.005135 -0.010226 -0.013871 -0.009453 -0.003396 0.000253 0.000090 
0.000100 0.000050 -0.002196 -0.013127 -0.016946 0.028974 0.053358 0.072142 0.080203 0.111720 0.163205 0.165632 0.105785 0.059672 0.041646 0.034109 0.018356 -0.012628 -0.031483 -0.038943 -0.026111 -0.029059 -0.021452 -0.011615 -0.005818 -0.000919 0.001919 0.000118 
0.000100 0.000099 -0.000666 -0.006674 -0.016505 0.009951 0.045790 0.063418 0.087794 0.111113 0.137438 0.165133 0.152919 0.143722 0.100798 0.070723 0.028368 -0.003878 -0.033337 -0.040387 -0.043414 -0.038325 -0.019123 -0.005627 -0.002181 -0.000237 0.000697 0.000134 
0.000100 0.000100 -0.000050 -0.002208 -0.010923 -0.008319 0.002247 0.022259 0.041627 0.073589 0.103486 0.142774 0.151453 0.130672 0.088277 0.043561 -0.007624 -0.032788 -0.052043 -0.050901 -0.048868 -0.030230 -0.013271 -0.003771 -0.000583 0.000018 0.000056 0.000100 
0.000100 0.000100 -0.000195 -0.000668 -0.002574 -0.007959 -0.015249 -0.026945 -0.031170 -0.032738 -0.030701 -0.026123 -0.009598 -0.012326 -0.023674 -0.037124 -0.049041 -0.049470 -0.049828 -0.039864 -0.030375 -0.020266 -0.009152 -0.002757 -0.000741 0.000094 0.000099 0.000100 
0.000100 0.000100 0.000098 0.000000 -0.001166 -0.003908 -0.009398 -0.018182 -0.029851 -0.041633 -0.049844 -0.048310 -0.053413 -0.055055 -0.056635 -0.050145 -0.045385 -0.040487 -0.031324 -0.018445 -0.014441 -0.011001 -0.005767 -0.001430 -0.000480 0.000099 0.000099 0.000100 
0.000100 0.000100 0.000100 0.000092 -0.000062 -0.001016 -0.002894 -0.005135 -0.009403 -0.013759 -0.013704 -0.014207 -0.014610 -0.017193 -0.018586 -0.017491 -0.015402 -0.013311 -0.010683 -0.004924 -0.004654 -0.004601 -0.003403 -0.000511 0.000100 0.000100 0.000100 0.000100 
0.000100 0.000100 0.000100 0.000100 0.000096 0.000003 -0.000042 -0.000149 -0.000306 -0.000543 -0.000582 -0.000913 -0.001930 -0.003208 -0.004801 -0.003206 -0.002091 -0.002225 -0.002094 -0.000979 -0.000989 -0.001182 -0.002587 -0.000458 0.000100 0.000100 0.000100 0.000100 

0.000100 0.000100 0.000100 0.000100 0.000100 0.000100 0.000100 0.000100 0.000100 0.000100 0.000100 0.000100 0.000097 0.000091 0.000097 0.000100 0.000100 0.000100 0.000100 0.000100 0.000100 0.000100 0.000100 0.000100 0.000100 0.000100 0.000100 0.000100 1
0.000100 0.000100 0.000100 0.000100 0.000100 0.000100 0.000099 0.000081 -0.000431 -0.000366 -0.000266 -0.000170 -0.000052 -0.000081 0.001412 0.001609 -0.000536 -0.000377 -0.000011 -0.000032 -0.000067 -0.000086 0.000064 0.000099 0.000100 0.000100 0.000100 0.000100 
0.000100 0.000100 0.000100 0.000100 0.000099 0.000099 0.000086 -0.000249 -0.001797 -0.002902 -0.003602 -0.003906 -0.002062 0.002715 0.002628 0.007031 0.000641 -0.005127 -0.004413 -0.002610 -0.002947 -0.002270 -0.001016 -0.000140 0.000007 0.000071 0.000100 0.000100 
0.000100 0.000100 0.000100 0.000100 0.000093 -0.000038 -0.000733 -0.002847 -0.007099 -0.013883 -0.019060 -0.023592 -0.016741 -0.010120 -0.007088 -0.004268 -0.014386 -0.023263 -0.027785 -0.024736 -0.020308 -0.013983 -0.005498 -0.002854 -0.001884 -0.000376 -0.000636 0.000100 
0.000100 0.000100 0.000099 0.000023 -0.000235 -0.001527 -0.004940 -0.011818 -0.016300 -0.021792 -0.018402 -0.015992 0.022564 0.060133 0.059116 0.047510 0.018760 0.018186 0.028103 0.050297 0.068793 0.061150 0.036621 0.010387 -0.003530 -0.003768 -0.000446 -0.000130 
0.000100 0.000100 0.000210 -0.000030 -0.000858 -0.002426 -0.010871 -0.023997 -0.039654 -0.049047 -0.043791 -0.021844 0.022247 0.073415 0.074862 0.049566 -0.017368 -0.022979 0.023879 0.072372 0.117154 0.113148 0.061317 0.016032 -0.003863 -0.007415 -0.001314 -0.000176 
0.000100 0.000100 -0.000208 -0.000915 -0.002924 -0.010727 -0.025898 -0.051732 -0.082931 -0.104607 -0.103965 -0.078728 -0.047079 -0.008976 -0.012853 -0.073127 -0.112681 -0.097661 -0.013572 0.046420 0.080922 0.055880 0.013798 -0.015115 -0.021612 -0.011705 -0.002416 -0.000840 
0.000096 -0.000007 -0.000148 -0.001256 -0.003943 -0.019499 -0.044467 -0.070703 -0.117679 -0.150938 -0.160686 -0.145352 -0.089320 -0.061796 -0.050442 -0.100199 -0.119624 -0.098107 -0.032900 0.015660 0.009758 -0.014289 -0.038253 -0.055364 -0.044736 -0.020313 -0.004003 -0.001090 
0.000085 0.000011 -0.000130 -0.001400 -0.006874 -0.023832 -0.049533 -0.075321 -0.116869 -0.158675 -0.180077 -0.154601 -0.095316 -0.034799 0.026406 0.017745 -0.032163 -0.024343 -0.020644 -0.043225 -0.065966 -0.086707 -0.099729 -0.091227 -0.061620 -0.025957 -0.003926 -0.000429 
0.000098 0.000176 -0.000212 -0.001419 -0.006864 -0.022161 -0.042514 -0.063054 -0.096443 -0.134886 -0.160495 -0.143346 -0.085947 0.031693 0.160438 0.186846 0.090070 -0.006871 -0.045326 -0.092009 -0.122591 -0.130593 -0.118325 -0.091760 -0.057220 -0.021852 -0.002436 -0.000162 
0.000100 0.000330 -0.000214 -0.001534 -0.005258 -0.017580 -0.032238 -0.050922 -0.075984 -0.112631 -0.141209 -0.148815 -0.078470 0.076728 0.297884 0.334587 0.135844 -0.021081 -0.090933 -0.121006 -0.138315 -0.122180 -0.089727 -0.063525 -0.039327 -0.013207 -0.002566 0.000073 
0.000096 0.000066 -0.000153 -0.001218 -0.003643 -0.013635 -0.027599 -0.045053 -0.073487 -0.115045 -0.152982 -0.177519 -0.107498 0.109671 0.414944 0.410024 0.117327 -0.052378 -0.101874 -0.121906 -0.111983 -0.078163 -0.051624 -0.032839 -0.018479 -0.005563 -0.001274 0.000092 
0.000100 0.000031 -0.000204 -0.000563 -0.002861 -0.013362 -0.021863 -0.038074 -0.072172 -0.119646 -0.181940 -0.220161 -0.148839 0.157269 0.508385 0.395757 0.065744 -0.090034 -0.123744 -0.125312 -0.087067 -0.054183 -0.035093 -0.020102 -0.010637 -0.002831 -0.000729 0.000087 
0.000109 0.000072 -0.000129 -0.000302 -0.003064 -0.012169 -0.021132 -0.041332 -0.074965 -0.139047 -0.215423 -0.257960 -0.169010 0.232763 0.510900 0.333360 -0.007418 -0.139714 -0.161972 -0.121081 -0.075791 -0.048626 -0.031619 -0.020460 -0.011703 -0.003300 -0.000492 0.000092 
0.000099 0.000087 0.000048 -0.000316 -0.001613 -0.012487 -0.027907 -0.050846 -0.083054 -0.144199 -0.225497 -0.263369 -0.117004 0.286373 0.460562 0.265402 -0.087381 -0.210057 -0.180855 -0.120682 -0.078798 -0.053933 -0.034579 -0.022015 -0.011496 -0.004098 -0.000689 0.000092 
0.000100 0.000091 0.000036 -0.000544 -0.002656 -0.019257 -0.040699 -0.058696 -0.088983 -0.147305 -0.208753 -0.179886 -0.010123 0.318913 0.434042 0.169973 -0.155053 -0.237994 -0.180621 -0.125274 -0.084814 -0.059222 -0.039731 -0.025858 -0.015688 -0.005501 -0.001741 -0.000082 
0.000100 0.000085 -0.000123 -0.001013 -0.005737 -0.027760 -0.058046 -0.081130 -0.106312 -0.133677 -0.139201 -0.082139 0.061201 0.308076 0.371908 0.054486 -0.186316 -0.234788 -0.186758 -0.128325 -0.090552 -0.059674 -0.040616 -0.028517 -0.016774 -0.008383 -0.002673 -0.000008 
0.000100 0.000189 -0.000179 -0.002101 -0.009997 -0.041932 -0.083904 -0.104067 -0.112625 -0.106274 -0.046773 -0.001192 0.126028 0.283846 0.258791 -0.007671 -0.167642 -0.202910 -0.174313 -0.120350 -0.084056 -0.057667 -0.041257 -0.030670 -0.017874 -0.008984 -0.002577 -0.000098 
0.000085 0.000108 -0.000340 -0.003055 -0.013835 -0.054546 -0.110714 -0.124423 -0.103397 -0.051890 -0.003203 0.048841 0.138033 0.205653 0.154520 -0.020264 -0.131208 -0.144542 -0.133561 -0.103000 -0.066952 -0.051477 -0.044577 -0.029865 -0.014986 -0.004410 -0.001178 0.000703 
0.000100 0.000094 -0.000670 -0.004367 -0.018179 -0.062694 -0.108896 -0.109330 -0.073134 -0.008147 0.022643 0.055834 0.072911 0.111173 0.079755 0.000185 -0.057548 -0.083293 -0.078543 -0.070025 -0.056613 -0.044182 -0.033317 -0.020267 -0.009515 -0.003677 -0.001319 0.000448 
0.000100 0.000092 -0.001020 -0.005406 -0.017950 -0.051025 -0.072363 -0.063388 -0.017417 0.027615 0.042815 0.038051 0.009658 0.016298 0.034329 0.002453 -0.011815 -0.024101 -0.035291 -0.051764 -0.049589 -0.037363 -0.027007 -0.015340 -0.003922 -0.000859 -0.000578 0.000095 
0.000115 0.000095 -0.001154 -0.002084 -0.007176 -0.010872 -0.002090 0.013101 0.043267 0.051752 0.030256 -0.035226 -0.087416 -0.071252 -0.014776 0.027799 0.020184 0.012112 -0.016329 -0.038075 -0.037970 -0.030051 -0.026735 -0.011622 -0.000576 0.001557 0.000329 0.000100 
0.000115 0.000104 -0.000854 -0.000996 0.002696 0.028649 0.051142 0.067710 0.083592 0.061210 0.001148 -0.101427 -0.155592 -0.131545 -0.026466 0.054015 0.068892 0.058861 0.017206 -0.014666 -0.021302 -0.020606 -0.020604 -0.009120 -0.002178 0.000991 0.000366 0.000100 
0.000100 0.000100 0.000048 -0.001519 0.006018 0.030941 0.063761 0.072145 0.072411 0.051831 -0.030634 -0.104196 -0.129183 -0.109940 -0.032632 0.057906 0.084121 0.058181 0.010851 -0.004252 -0.010299 -0.013494 -0.011850 -0.006200 -0.001084 0.000409 0.000407 0.000100 
0.000100 0.000100 0.000092 -0.001231 -0.002933 0.003076 0.004354 -0.010868 -0.035910 -0.054674 -0.096845 -0.123721 -0.124723 -0.125671 -0.087996 -0.045316 -0.025142 -0.010796 -0.008511 -0.005486 -0.006067 -0.004065 -0.002689 -0.001124 -0.000206 0.000434 0.000162 0.000100 
0.000100 0.000100 0.000100 -0.000080 -0.001571 -0.003598 -0.008536 -0.022842 -0.034506 -0.046951 -0.063429 -0.062457 -0.060161 -0.070470 -0.064420 -0.053503 -0.033925 -0.018153 -0.009411 -0.006293 -0.003668 -0.001600 -0.000690 -0.000316 0.000009 0.000098 0.000097 0.000100 
0.000100 0.000100 0.000100 0.000076 -0.000197 -0.000789 -0.001963 -0.003754 -0.006148 -0.008781 -0.011448 -0.011536 -0.012712 -0.016264 -0.013287 -0.010108 -0.006717 -0.003292 -0.002643 -0.001394 -0.000717 -0.000447 -0.000139 0.000046 0.000100 0.000100 0.000100 0.000100 
0.000100 0.000100 0.000100 0.000100 0.000095 0.000050 0.000004 -0.000055 -0.000058 -0.000064 -0.000396 -0.000332 -0.000620 -0.000619 -0.000455 -0.000344 -0.000302 -0.000345 -0.000693 -0.000010 0.000047 0.000047 0.000055 0.000097 0.000100 0.000100 0.000100 0.000100 

0.000100 0.000100 0.000100 0.000100 0.000100 0.000100 0.000100 0.000100 0.000100 0.000100 0.000100 0.000100 0.000048 0.000158 0.000291 0.000108 0.000100 0.000100 0.000100 0.000100 0.000100 0.000100 0.000100 0.000100 0.000100 0.000100 0.000100 0.000100 2
0.000100 0.000100 0.000100 0.000100 0.000100 0.000098 -0.000048 -0.000479 -0.000496 -0.001212 -0.000992 -0.001061 -0.001198 -0.001230 -0.000358 0.001737 0.004171 -0.000155 -0.000568 -0.000868 -0.000723 -0.000584 -0.000012 0.000074 0.000100 0.000100 0.000100 0.000100 
0.000100 0.000100 0.000100 0.000099 0.000061 0.000080 -0.000144 -0.000593 -0.000751 0.001189 0.000467 0.002749 0.004102 0.000221 -0.002975 -0.001404 -0.002459 -0.009659 -0.017388 -0.016697 -0.009361 -0.007660 -0.004863 -0.000719 0.002259 0.001636 0.000100 0.000100 
0.000100 0.000100 0.000100 0.000076 -0.000129 0.000647 0.004022 0.012161 0.024961 0.053262 0.073424 0.088093 0.090679 0.092608 0.074802 0.057450 0.042923 0.014074 -0.014810 -0.030041 -0.027390 -0.019328 -0.014636 -0.007682 -0.001365 0.001404 -0.000043 0.000100 
0.000100 0.000097 0.000054 -0.000141 -0.001421 0.004289 0.015945 0.032693 0.065685 0.120820 0.155668 0.187250 0.196468 0.184589 0.180137 0.167802 0.141348 0.087452 0.028396 -0.020227 -0.042430 -0.045233 -0.039632 -0.024147 -0.010324 -0.000387 -0.000250 -0.000117 
0.000100 0.000100 0.000055 0.000103 0.000177 0.010769 0.037633 0.083550 0.138818 0.185604 0.204669 0.214061 0.207634 0.201180 0.212669 0.204663 0.188587 0.147654 0.077581 0.010863 -0.025688 -0.036464 -0.040026 -0.038245 -0.022537 -0.005353 -0.001183 -0.000219 
0.000100 0.000100 -0.000165 0.000152 0.001346 0.021667 0.068270 0.121543 0.144825 0.151989 0.149802 0.131137 0.106291 0.091492 0.101230 0.118012 0.094676 0.075337 0.048828 -0.004685 -0.027138 -0.030179 -0.040388 -0.052963 -0.033829 -0.011520 -0.001651 -0.000351 
0.000094 -0.000026 0.001250 0.003258 0.015700 0.041896 0.094442 0.098292 0.091436 0.074683 0.062934 0.059310 0.055772 0.062103 0.058777 0.035567 0.020689 -0.002895 -0.010171 -0.018551 -0.040511 -0.026381 -0.020407 -0.059381 -0.049087 -0.017995 -0.003011 -0.000289 
0.000077 -0.000074 0.001119 0.002942 0.021962 0.046860 0.073141 0.052766 0.030950 0.039288 0.075568 0.068707 0.045293 0.044072 0.064300 0.055923 0.023136 0.007511 -0.011251 -0.004717 -0.029446 -0.031896 -0.031277 -0.057036 -0.060238 -0.022762 -0.002914 -0.000123 
0.000096 -0.000153 -0.000403 -0.000647 0.021937 0.042916 0.024057 -0.017899 -0.044059 -0.011493 0.000672 -0.016154 -0.034115 -0.032678 -0.003921 0.020633 0.033532 0.020581 0.008929 -0.019389 -0.029013 -0.037228 -0.037420 -0.062951 -0.056093 -0.018790 -0.002684 -0.000054 
0.000100 -0.000157 -0.000396 -0.001481 0.002142 -0.000209 -0.029789 -0.096603 -0.119170 -0.125471 -0.139686 -0.168398 -0.189252 -0.185570 -0.121070 -0.058312 0.005338 0.020190 0.007506 -0.005365 -0.012496 -0.039680 -0.048543 -0.056452 -0.036608 -0.012179 -0.002180 0.000036 
0.000091 -0.000052 -0.000571 -0.005829 -0.013545 -0.038451 -0.103773 -0.178027 -0.226197 -0.241673 -0.267841 -0.281441 -0.309410 -0.309764 -0.228061 -0.127999 -0.039077 -0.028327 -0.030299 0.012203 -0.011191 -0.041481 -0.061630 -0.063108 -0.025001 0.000031 -0.001354 0.000057 
0.000100 -0.000028 -0.000326 -0.008991 -0.026441 -0.081843 -0.172181 -0.251049 -0.275815 -0.280505 -0.290716 -0.297861 -0.305538 -0.298030 -0.238170 -0.165505 -0.097931 -0.080903 -0.036078 0.015953 -0.026224 -0.049400 -0.081753 -0.082355 -0.025850 0.010730 0.002612 0.000343 
0.000099 0.000011 -0.000201 -0.007800 -0.035688 -0.116161 -0.202111 -0.243026 -0.237288 -0.217197 -0.196693 -0.186648 -0.174696 -0.153381 -0.128589 -0.130224 -0.101629 -0.069167 -0.041532 -0.026124 -0.039024 -0.071400 -0.087212 -0.076810 -0.023593 0.017534 0.009510 0.001482 
0.000095 -0.000492 -0.000349 -0.007929 -0.031850 -0.112151 -0.143758 -0.132535 -0.113485 -0.090537 -0.062059 -0.034223 -0.005520 0.024722 -0.017570 -0.078776 -0.058180 -0.051302 -0.045148 -0.053740 -0.061451 -0.082899 -0.085103 -0.072014 -0.012603 0.024205 0.015562 0.000403 
0.000098 -0.000947 -0.000745 -0.000557 -0.008495 -0.031792 -0.042311 -0.024467 0.001951 0.018640 0.032307 0.064139 0.110550 0.115331 0.048390 -0.013921 -0.013437 -0.017169 -0.030291 -0.040200 -0.055647 -0.049274 -0.045944 -0.018547 0.030221 0.051804 0.025897 0.002200 
0.000100 -0.000525 -0.001724 0.003254 0.026994 0.048155 0.055957 0.051618 0.047670 0.062391 0.088311 0.147759 0.192182 0.175015 0.078074 0.041133 0.063425 0.054109 0.023115 0.010694 0.018780 0.042394 0.044764 0.065015 0.079050 0.089630 0.033077 0.002417 
0.000100 -0.000206 -0.001227 0.012969 0.069947 0.108482 0.122020 0.100802 0.077856 0.094293 0.126533 0.178364 0.210946 0.169168 0.092216 0.095854 0.101753 0.081172 0.040042 0.028728 0.065369 0.096689 0.118785 0.131101 0.142230 0.103139 0.026375 0.002734 
0.000098 0.000070 -0.005519 0.018925 0.098202 0.148313 0.169459 0.157789 0.108916 0.123787 0.175065 0.206319 0.218496 0.176727 0.116407 0.070503 0.085638 0.068614 0.045532 0.031430 0.058811 0.112616 0.161493 0.178957 0.159283 0.079885 0.013548 0.002806 
0.000100 0.000081 -0.003731 0.018469 0.092908 0.138372 0.179480 0.182784 0.173869 0.177064 0.172688 0.191924 0.171889 0.117849 0.067292 0.051053 0.044303 0.050892 0.055345 0.061008 0.095961 0.149077 0.189632 0.187209 0.135752 0.061219 0.012150 0.001108 
0.000100 0.000049 0.000485 0.025462 0.086025 0.122254 0.168734 0.177181 0.180158 0.174347 0.151310 0.135655 0.080659 0.023579 -0.004321 0.000584 0.035769 0.055385 0.086264 0.128877 0.147460 0.173121 0.191549 0.167580 0.104818 0.032829 0.004650 0.000099 
0.000096 0.000162 0.003244 0.020514 0.058937 0.082919 0.118561 0.136781 0.134482 0.141896 0.111906 0.083667 0.035402 -0.010280 -0.037863 -0.033304 0.020381 0.073689 0.104541 0.147739 0.139841 0.154209 0.153464 0.124346 0.068589 0.021676 0.002280 0.000098 
0.000096 0.000097 0.001029 0.009181 0.031334 0.032578 0.046714 0.071215 0.080322 0.090738 0.068019 0.033863 -0.009835 -0.062982 -0.083797 -0.080647 -0.029908 0.024924 0.076218 0.099721 0.109544 0.103712 0.091756 0.056059 0.028324 0.010334 0.000143 0.000096 
0.000100 0.000100 -0.000149 -0.001007 0.001897 -0.004385 -0.013627 -0.029728 -0.049920 -0.054831 -0.063563 -0.071444 -0.087887 -0.127025 -0.132730 -0.122765 -0.082710 -0.038284 0.002370 0.025209 0.035682 0.042454 0.033830 0.016252 0.004791 0.005054 0.000273 0.000100 
0.000100 0.000100 -0.000231 -0.003227 -0.007506 -0.018547 -0.036118 -0.057133 -0.078393 -0.095090 -0.097779 -0.086891 -0.079436 -0.075832 -0.071327 -0.069142 -0.062515 -0.040154 -0.026744 -0.021490 -0.012796 -0.006462 -0.001659 -0.000297 0.004347 0.004114 0.000577 0.000100 
0.000100 0.000100 0.000100 -0.001352 -0.005290 -0.010595 -0.018567 -0.032322 -0.045628 -0.048536 -0.047847 -0.043557 -0.039547 -0.036007 -0.029711 -0.024197 -0.025185 -0.021420 -0.020436 -0.020292 -0.016977 -0.013415 -0.009065 -0.003916 -0.001287 0.000525 0.000608 0.000100 
0.000100 0.000100 0.000100 0.000087 -0.000247 -0.000948 -0.002334 -0.004405 -0.006124 -0.006680 -0.007459 -0.007342 -0.006767 -0.007658 -0.007544 -0.007110 -0.007431 -0.006233 -0.005266 -0.003823 -0.003195 -0.002005 -0.000625 -0.000001 0.000100 0.000100 0.000100 0.000100 
0.000100 0.000100 0.000100 0.000100 0.000097 0.000054 0.000008 -0.000052 -0.000061 -0.000084 -0.000205 -0.000275 -0.000416 -0.000460 -0.000503 -0.000508 -0.000506 -0.000378 -0.000344 -0.000101 -0.000226 -0.000090 -0.000095 0.000086 0.000100 0.000100 0.000100 0.000100 

0.000100 0.000100 0.000100 0.000100 0.000100 0.000100 0.000100 0.000100 0.000100 0.000100 0.000100 0.000100 0.000092 0.000079 0.000096 0.000100 0.000100 0.000100 0.000100 0.000100 0.000100 0.000100 0.000100 0.000100 0.000100 0.000100 0.000100 0.000100 3
0.000100 0.000100 0.000100 0.000100 0.000100 0.000100 0.000094 0.000081 0.000034 0.000025 0.000038 0.000007 0.000010 -0.000076 -0.000189 -0.000240 -0.000186 -0.000026 0.000040 -0.000008 -0.000038 0.000024 0.000078 0.000099 0.000100 0.000100 0.000100 0.000100 
0.000100 0.000100 0.000100 0.000100 0.000099 0.000099 0.000080 -0.000130 -0.000734 -0.001476 -0.000704 0.000945 -0.000360 -0.002360 -0.001698 -0.002146 -0.002412 -0.001652 -0.002116 -0.002652 -0.001987 -0.001267 -0.000520 -0.000073 0.000034 0.000098 0.000100 0.000100 
0.000100 0.000100 0.000100 0.000099 -0.000012 0.003694 0.002480 0.001804 0.002475 0.005230 0.010041 0.020156 0.028847 0.031050 0.032051 0.032462 0.032593 0.030172 0.017748 0.002023 0.000719 -0.007506 -0.007267 -0.002908 -0.000776 0.000053 0.000076 0.000100 
0.000100 0.000107 0.000094 0.000886 0.006407 0.019375 0.026148 0.044441 0.073085 0.084522 0.096633 0.104778 0.104310 0.099081 0.072260 0.050618 0.017030 0.003236 0.001659 -0.016866 -0.040131 -0.045119 -0.033770 -0.024356 -0.007605 -0.000941 0.000043 0.000084 
0.000100 0.000100 0.000481 0.005108 0.018057 0.045250 0.074045 0.104216 0.120708 0.132346 0.141220 0.124594 0.103770 0.088518 0.041559 0.031752 0.029309 -0.028842 -0.027608 -0.039257 -0.065702 -0.081269 -0.080007 -0.055180 -0.023071 -0.005444 -0.000578 0.000053 
0.000100 0.000100 0.000786 0.015961 0.038947 0.074882 0.111748 0.129693 0.149599 0.144806 0.136266 0.117955 0.113450 0.114780 0.105101 0.115232 0.100269 0.052320 0.046734 0.008577 -0.008686 -0.050909 -0.087851 -0.078472 -0.042487 -0.011911 -0.001261 -0.000132 
0.000092 0.000676 0.000380 0.019522 0.055420 0.095632 0.112369 0.105559 0.102321 0.083696 0.069965 0.060789 0.073078 0.083768 0.102382 0.128811 0.089825 0.081348 0.067381 0.077497 0.060350 -0.003100 -0.058843 -0.082280 -0.054678 -0.017695 -0.002376 -0.000082 
0.000066 -0.000261 -0.001837 0.021132 0.065540 0.089202 0.080006 0.050190 0.015344 -0.008009 -0.012937 -0.038886 -0.034796 -0.012054 0.056610 0.113621 0.104770 0.089481 0.075558 0.108914 0.098965 0.040179 -0.030247 -0.080684 -0.059746 -0.020574 -0.001934 0.000031 
0.000095 -0.000490 -0.000694 0.020967 0.048967 0.044503 0.022384 -0.030191 -0.091257 -0.123903 -0.158869 -0.207201 -0.170968 -0.069299 0.062299 0.154069 0.145346 0.104192 0.077726 0.106305 0.107923 0.041295 -0.017577 -0.061633 -0.046396 -0.013042 -0.001317 0.000040 
0.000100 -0.000780 -0.000189 0.016618 0.020428 0.005783 -0.044102 -0.119313 -0.197814 -0.241934 -0.283741 -0.286064 -0.188062 -0.021266 0.131786 0.199206 0.184561 0.123449 0.099984 0.092630 0.075202 0.010142 -0.031404 -0.046760 -0.027495 -0.006574 -0.000781 0.000079 
0.000064 -0.000334 0.000714 0.007019 -0.001775 -0.034603 -0.098336 -0.183200 -0.249919 -0.265965 -0.258940 -0.199128 -0.076470 0.068314 0.186584 0.194931 0.150986 0.117945 0.100633 0.059907 0.019966 -0.045547 -0.057891 -0.040875 -0.020016 -0.002946 -0.000421 0.000091 
0.000100 -0.000515 -0.002196 -0.002316 -0.009739 -0.050837 -0.116234 -0.178800 -0.206928 -0.179892 -0.148330 -0.076248 0.041477 0.134497 0.189644 0.157123 0.115802 0.086272 0.054532 -0.013510 -0.056523 -0.083858 -0.068651 -0.041001 -0.015347 -0.000705 -0.000157 0.000080 
0.000098 -0.000488 -0.001372 -0.001377 -0.011831 -0.051639 -0.110031 -0.157775 -0.159500 -0.133246 -0.097397 -0.000611 0.106486 0.155315 0.132618 0.077738 0.079902 0.057704 0.040009 -0.038272 -0.074423 -0.079431 -0.070497 -0.041119 -0.015925 -0.002139 -0.000077 0.000097 
-0.000125 0.000778 -0.000075 0.000112 -0.004310 -0.041074 -0.098142 -0.135883 -0.135328 -0.118657 -0.096567 -0.000522 0.093059 0.088491 0.061621 0.040388 0.018528 0.037679 0.059849 0.015438 -0.016121 -0.016541 -0.053285 -0.037219 -0.015857 -0.004024 -0.000297 0.000078 
0.000026 0.002027 0.002773 0.005781 0.012801 -0.028252 -0.079822 -0.120475 -0.159686 -0.166498 -0.124973 -0.039379 0.026573 0.032562 -0.008630 -0.027722 -0.017927 0.019377 0.055533 0.085120 0.084742 0.050867 0.005928 -0.025664 -0.012754 -0.005317 -0.000110 -0.000030 
0.000097 0.001755 0.009812 0.027839 0.037810 -0.001618 -0.057209 -0.103152 -0.163056 -0.197544 -0.200817 -0.151845 -0.091018 -0.087413 -0.125464 -0.111562 -0.055178 0.023347 0.091664 0.123061 0.110969 0.099474 0.047913 -0.007617 -0.012312 -0.007260 -0.001331 0.000036 
0.000100 0.000774 0.013415 0.052341 0.068906 0.035890 -0.025793 -0.076141 -0.152297 -0.235195 -0.270168 -0.255566 -0.227056 -0.220202 -0.214907 -0.124223 -0.019308 0.068193 0.114794 0.140485 0.110197 0.114157 0.074304 0.005819 -0.026650 -0.010932 -0.001371 0.000021 
0.000055 0.000201 0.016308 0.074890 0.106582 0.086936 0.031800 -0.029596 -0.100831 -0.193498 -0.244927 -0.253792 -0.260953 -0.246549 -0.211468 -0.070432 0.058752 0.122475 0.152401 0.153033 0.121588 0.125366 0.077703 -0.002947 -0.032351 -0.011442 -0.001492 -0.000061 
0.000100 0.000293 0.015461 0.086379 0.145102 0.153504 0.091268 0.037855 -0.025356 -0.114458 -0.165653 -0.201129 -0.201978 -0.168960 -0.112519 -0.016491 0.090615 0.149628 0.147789 0.139455 0.135145 0.106946 0.039941 -0.023392 -0.029588 -0.009453 -0.001032 0.000024 
0.000100 0.000492 0.014091 0.081685 0.151901 0.171595 0.140432 0.096185 0.058710 0.002706 -0.071980 -0.104957 -0.108253 -0.076527 -0.026942 0.029060 0.088516 0.113058 0.120222 0.126093 0.123751 0.065316 0.000156 -0.033618 -0.026745 -0.006649 -0.001016 0.000085 
0.000097 0.000407 0.011247 0.058874 0.129538 0.161901 0.155028 0.121939 0.091113 0.043035 0.002234 -0.044862 -0.047127 -0.023899 0.002232 0.040387 0.072309 0.077036 0.100348 0.115154 0.064454 0.003733 -0.026136 -0.035209 -0.022078 -0.004860 -0.000897 0.000099 
0.000098 0.000117 0.007458 0.036250 0.077234 0.121252 0.146215 0.114072 0.073063 0.078131 0.050535 0.015711 -0.009807 -0.000665 0.016630 0.038696 0.041683 0.058684 0.061340 0.054540 0.001946 -0.034160 -0.032450 -0.019756 -0.009543 -0.002369 -0.000029 0.000097 
0.000100 0.000100 0.002685 0.017785 0.050891 0.089221 0.119801 0.116418 0.097572 0.102985 0.100066 0.083547 0.048249 0.050627 0.038978 0.021982 0.009761 0.027830 0.029445 -0.005602 -0.038886 -0.035976 -0.022278 -0.010020 -0.001126 -0.000310 0.000300 0.000100 
0.000100 0.000100 0.000534 0.010390 0.030391 0.050240 0.082887 0.097969 0.104398 0.115356 0.130938 0.140694 0.120158 0.110341 0.074677 0.034804 0.010548 -0.006695 -0.031771 -0.038512 -0.027329 -0.015700 -0.006492 -0.002968 -0.001459 -0.000014 0.000095 0.000100 
0.000100 0.000100 0.000154 0.000397 0.004756 0.011384 0.023388 0.034030 0.039148 0.053408 0.067939 0.079222 0.082359 0.069380 0.035276 0.007117 -0.003192 -0.013388 -0.015802 -0.005824 -0.007059 -0.005655 -0.000837 -0.000530 0.000000 0.000099 0.000098 0.000100 
0.000100 0.000100 0.000100 0.000086 -0.000094 -0.000057 -0.000729 -0.002215 -0.004822 -0.007563 -0.007285 -0.007028 -0.009722 -0.010235 -0.012888 -0.013214 -0.008987 -0.005365 -0.004016 -0.000475 -0.000773 -0.001406 -0.000304 -0.000006 0.000100 0.000100 0.000100 0.000100 
0.000100 0.000100 0.000100 0.000100 0.000099 0.000060 0.000012 -0.000074 -0.000097 -0.000149 -0.000381 -0.000562 -0.001040 -0.001237 -0.001737 -0.001716 -0.001738 -0.001410 -0.001163 -0.000603 -0.000322 -0.000173 -0.000033 0.000088 0.000100 0.000100 0.000100 0.000100 

0.000100 0.000100 0.000100 0.000100 0.000100 0.000100 0.000100 0.000100 0.000100 0.000100 0.000100 0.000100 -0.000134 -0.000490 0.000014 0.000096 0.000100 0.000100 0.000100 0.000100 0.000100 0.000100 0.000100 0.000100 0.000100 0.000100 0.000100 0.000100 4
0.000100 0.000100 0.000100 0.000100 0.000100 0.000081 -0.001545 -0.003937 -0.004411 -0.002946 -0.003964 -0.003453 -0.004807 -0.005146 -0.004728 -0.005490 -0.004881 -0.001568 -0.000777 -0.000738 -0.000517 -0.000407 -0.000104 -0.000090 0.000100 0.000100 0.000100 0.000100 
0.000100 0.000100 0.000099 0.000070 0.000062 0.000017 -0.002147 -0.006367 -0.010640 -0.011690 -0.017039 -0.019385 -0.026438 -0.030496 -0.032647 -0.031823 -0.026034 -0.017085 -0.012779 -0.007365 -0.004203 -0.003152 -0.001329 -0.000720 -0.000279 0.000047 0.000100 0.000100 
0.000100 0.000100 0.000099 -0.000073 -0.000048 -0.000618 -0.004436 -0.009499 -0.017791 -0.026706 -0.039134 -0.050682 -0.061313 -0.077527 -0.078741 -0.073075 -0.056938 -0.045017 -0.030815 -0.016421 -0.009984 -0.005593 -0.003102 -0.001991 -0.001363 0.000086 0.000025 0.000100 
0.000100 0.000100 0.000097 -0.000020 0.000281 -0.000049 -0.005079 -0.009954 -0.022450 -0.035126 -0.058921 -0.072178 -0.087635 -0.100933 -0.107785 -0.102692 -0.073671 -0.049303 -0.035233 -0.013446 0.003436 0.008650 0.015343 0.011369 0.005144 0.000095 0.000055 -0.000062 
0.000100 0.000100 0.000066 0.000201 0.002210 0.007099 0.012218 0.009035 -0.003040 -0.007662 -0.033630 -0.062597 -0.091528 -0.109518 -0.098192 -0.079995 -0.042732 -0.000545 0.023578 0.041804 0.050254 0.056740 0.073115 0.071374 0.031978 0.006322 -0.001087 0.000060 
0.000100 0.000100 -0.000186 0.000498 0.006897 0.016905 0.021438 0.025208 0.017858 -0.002290 -0.038409 -0.101965 -0.131529 -0.167127 -0.210194 -0.215324 -0.173265 -0.103709 -0.058073 -0.003311 0.037712 0.077850 0.120688 0.114897 0.045449 0.007686 0.000575 -0.000313 
0.000089 -0.000030 -0.000568 -0.000817 0.005497 0.018040 0.012798 0.010861 -0.001649 -0.016089 -0.069221 -0.143885 -0.198724 -0.219397 -0.318496 -0.373351 -0.304939 -0.186851 -0.109257 -0.055518 -0.012275 0.051565 0.104764 0.084987 0.024599 0.002333 0.000290 -0.000309 
0.000054 -0.001101 -0.002213 -0.003056 0.001334 0.007223 -0.002524 -0.004261 -0.029184 -0.030660 -0.077790 -0.133009 -0.165294 -0.204602 -0.337498 -0.374940 -0.269033 -0.142497 -0.079191 -0.051919 -0.027380 0.027394 0.052481 0.028743 -0.007171 -0.011019 -0.004368 -0.000697 
0.000093 -0.001588 -0.003445 -0.009617 -0.008654 -0.007284 -0.025156 -0.031666 -0.039191 -0.024541 -0.050967 -0.063975 -0.052156 -0.156505 -0.322927 -0.292358 -0.118034 -0.021460 -0.015590 -0.035587 -0.030380 -0.011369 -0.007180 -0.030872 -0.047598 -0.028949 -0.006754 -0.000447 
0.000100 -0.001487 -0.003769 -0.011722 -0.013573 -0.021618 -0.039633 -0.037818 -0.007680 0.026424 0.033514 0.060056 0.050311 -0.129190 -0.283440 -0.182371 -0.004148 0.075924 0.020994 -0.022973 -0.039932 -0.044191 -0.051976 -0.062754 -0.050502 -0.029650 -0.006081 -0.000194 
0.000065 -0.000800 -0.003813 -0.009016 -0.014910 -0.020904 -0.033155 -0.011331 0.058187 0.108336 0.171459 0.177961 0.092685 -0.135622 -0.226485 -0.074409 0.133755 0.142645 0.046894 -0.002725 -0.049529 -0.053127 -0.060689 -0.056181 -0.035068 -0.016614 -0.002226 -0.000063 
0.000100 -0.001308 -0.004074 -0.010363 -0.015556 -0.007081 0.015988 0.076353 0.140657 0.190903 0.266175 0.263042 0.111276 -0.087088 -0.144712 0.005415 0.186961 0.161446 0.066694 0.010901 -0.028678 -0.037788 -0.045505 -0.041750 -0.016058 -0.003140 -0.001213 -0.000084 
0.000100 -0.001136 -0.002522 -0.007810 0.000750 0.034202 0.092967 0.165117 0.208016 0.236301 0.303947 0.285748 0.112137 -0.049081 -0.082428 0.036303 0.184652 0.215205 0.117202 0.068047 0.038051 0.004014 -0.015013 -0.017610 -0.013634 -0.000398 -0.000346 -0.000549 
0.000092 -0.000675 -0.001327 -0.000291 0.028491 0.078859 0.150626 0.230537 0.246164 0.244224 0.266101 0.244141 0.130112 0.004825 -0.028430 0.087218 0.239824 0.281836 0.191087 0.160204 0.098749 0.044051 0.017399 0.001944 -0.009743 -0.004186 -0.001773 0.000024 
0.000096 0.000069 0.000336 0.003156 0.022380 0.073828 0.156487 0.231743 0.239804 0.224480 0.200723 0.192285 0.112369 0.028549 0.055918 0.194982 0.308817 0.277392 0.182922 0.139422 0.077669 0.020305 0.004529 -0.007050 -0.017794 -0.008033 0.000218 -0.000034 
0.000091 0.000075 -0.001607 -0.006358 -0.006479 0.032101 0.108721 0.183003 0.208760 0.167582 0.117186 0.097176 0.085464 0.092009 0.171765 0.293406 0.311009 0.228810 0.145134 0.084288 0.032428 -0.024073 -0.038670 -0.031581 -0.020258 -0.015340 -0.003790 -0.000135 
0.000100 0.000086 -0.002941 -0.014706 -0.023861 -0.006004 0.025361 0.087821 0.106227 0.082877 0.034164 0.030008 0.069910 0.150085 0.236968 0.269621 0.224288 0.112948 0.040695 -0.014151 -0.046125 -0.067973 -0.072088 -0.050532 -0.031062 -0.017270 -0.003304 -0.000220 
0.000072 0.000098 -0.002266 -0.017437 -0.031908 -0.042337 -0.055918 -0.041220 -0.024860 -0.042617 -0.091439 -0.078736 -0.001287 0.082945 0.143103 0.138992 0.082923 -0.025182 -0.077895 -0.082418 -0.077347 -0.087566 -0.086822 -0.053276 -0.026785 -0.012728 -0.000317 0.000003 
0.000100 0.000095 -0.001770 -0.013362 -0.031626 -0.059754 -0.109190 -0.146229 -0.173475 -0.194430 -0.202090 -0.184031 -0.125320 -0.031101 0.014026 0.014750 -0.017736 -0.069907 -0.095198 -0.098634 -0.092840 -0.082220 -0.078406 -0.046290 -0.022133 -0.006867 -0.000191 0.000079 
0.000100 0.000092 -0.001330 -0.011853 -0.031460 -0.064831 -0.117321 -0.174096 -0.218554 -0.236830 -0.237347 -0.209601 -0.137264 -0.104071 -0.069027 -0.045728 -0.043870 -0.046041 -0.063584 -0.076815 -0.067965 -0.054534 -0.050257 -0.031860 -0.013573 -0.003417 -0.000080 0.000092 
0.000100 0.000092 -0.000580 -0.007458 -0.021117 -0.048752 -0.100733 -0.150819 -0.176973 -0.195062 -0.195624 -0.155630 -0.120582 -0.106112 -0.094392 -0.055623 -0.041668 -0.014812 -0.023809 -0.014295 -0.015170 -0.018631 -0.022794 -0.016990 -0.008726 -0.002499 -0.000273 0.000100 
0.000100 0.000100 -0.000197 -0.003601 -0.011458 -0.029772 -0.062622 -0.094093 -0.117613 -0.130487 -0.122278 -0.098017 -0.089291 -0.077914 -0.079322 -0.034601 -0.007631 0.023399 0.038808 0.048862 0.028676 0.014025 -0.003787 -0.006349 -0.002878 -0.001092 0.000004 0.000100 
0.000100 0.000100 0.000024 -0.001263 -0.005708 -0.015011 -0.029190 -0.041498 -0.059812 -0.064661 -0.062396 -0.052117 -0.058481 -0.054130 -0.042313 -0.015772 0.020646 0.045945 0.074298 0.066769 0.047984 0.021120 0.000482 -0.002767 -0.001366 -0.000236 0.000070 0.000100 
0.000100 0.000100 0.000088 -0.000429 -0.002459 -0.006153 -0.007334 -0.019370 -0.032843 -0.033542 -0.034693 -0.028351 -0.044114 -0.054624 -0.054171 -0.037701 -0.009150 -0.012106 0.018905 0.022323 0.003214 -0.004377 -0.006855 -0.004122 -0.001060 0.000336 0.000076 0.000100 
0.000100 0.000100 0.000100 0.000025 -0.001049 -0.003470 -0.009889 -0.026768 -0.043510 -0.050594 -0.065861 -0.095555 -0.107636 -0.107700 -0.101148 -0.098230 -0.098632 -0.101233 -0.072930 -0.053101 -0.036060 -0.022427 -0.010333 -0.002545 -0.001053 0.000079 0.000075 0.000100 
0.000100 0.000100 0.000100 0.000089 -0.000115 -0.000831 -0.006537 -0.011425 -0.018519 -0.031970 -0.041709 -0.050643 -0.059657 -0.063555 -0.066906 -0.062465 -0.061054 -0.052328 -0.040303 -0.028155 -0.016689 -0.009237 -0.003570 -0.000367 0.000105 0.000100 0.000100 0.000100 
0.000100 0.000100 0.000100 0.000100 0.000097 0.000044 -0.000014 -0.000287 -0.000631 -0.000944 -0.002231 -0.002073 -0.005291 -0.005178 -0.008880 -0.005182 -0.003780 -0.003579 -0.003945 -0.003022 -0.001337 -0.000802 -0.000536 0.000036 0.000100 0.000100 0.000100 0.000100 

0.000100 0.000100 0.000100 0.000100 0.000100 0.000100 0.000100 0.000100 0.000100 0.000100 0.000100 0.000100 0.000092 0.000080 0.000099 0.000100 0.000100 0.000100 0.000100 0.000100 0.000100 0.000100 0.000100 0.000100 0.000100 0.000100 0.000100 0.000100 5
0.000100 0.000100 0.000100 0.000100 0.000100 0.000100 0.000088 0.000067 0.000015 0.000028 0.000036 -0.000008 -0.000064 -0.000232 -0.000276 -0.000286 -0.000324 -0.000137 -0.000042 -0.000149 -0.000167 -0.000014 0.000065 0.000095 0.000100 0.000100 0.000100 0.000100 
0.000100 0.000100 0.000100 0.000097 0.000095 0.000098 0.000075 -0.000208 -0.000388 -0.000999 -0.002355 -0.004272 -0.005581 -0.007467 -0.009149 -0.008201 -0.006579 -0.005841 -0.005828 -0.005319 -0.005350 -0.003791 -0.001544 -0.000492 -0.000426 0.000012 0.000100 0.000100 
0.000100 0.000100 0.000099 0.000070 0.000047 -0.001899 -0.001375 -0.002474 -0.004025 -0.007693 -0.012067 -0.018741 -0.020825 -0.020688 -0.011802 -0.010972 -0.014191 -0.008745 -0.002325 0.005040 0.003126 0.001468 0.000954 -0.002558 -0.001968 -0.000798 0.000020 0.000100 
0.000100 0.000098 0.000088 -0.000260 -0.002477 -0.010371 -0.013933 -0.024795 -0.040937 -0.050918 -0.054329 -0.051221 -0.064520 -0.075998 -0.051551 -0.024902 -0.003267 0.005936 0.006159 -0.006329 -0.003477 0.026133 0.036636 0.034405 0.021813 0.004746 0.000351 -0.000002 
0.000100 0.000100 -0.000204 -0.001549 -0.008487 -0.024386 -0.038618 -0.046444 -0.048240 -0.044598 -0.028724 -0.018431 -0.033620 -0.041566 -0.027299 -0.010056 0.020061 0.054845 0.047983 0.041870 0.072474 0.089383 0.115630 0.116804 0.083397 0.032200 0.006689 0.000509 
0.000100 0.000100 0.000215 -0.005396 -0.017054 -0.034602 -0.053558 -0.048685 -0.034183 0.010206 0.039355 0.061963 0.051922 0.037116 0.047218 0.008874 0.001104 0.024460 0.054445 0.086358 0.110546 0.121933 0.171730 0.208802 0.195152 0.087990 0.022001 0.003211 
0.000094 -0.000076 -0.001049 -0.010628 -0.034711 -0.053882 -0.052595 -0.027460 0.023245 0.057841 0.096664 0.114207 0.067542 0.022796 -0.005843 -0.077207 -0.065811 -0.024685 0.010565 0.065452 0.105136 0.140377 0.192610 0.279133 0.275016 0.160674 0.038265 0.003165 
0.000075 -0.000282 -0.001994 -0.014784 -0.047851 -0.055382 -0.052507 -0.009974 0.054174 0.072318 0.082982 0.098844 0.046264 -0.002615 -0.056732 -0.115393 -0.108812 -0.074284 -0.017048 0.027238 0.092681 0.145930 0.198855 0.302721 0.329712 0.204799 0.044755 0.004342 
0.000096 -0.000438 -0.001801 -0.015574 -0.039401 -0.040327 -0.024255 0.024953 0.086910 0.100644 0.115079 0.161983 0.099400 0.038680 -0.019923 -0.089472 -0.117887 -0.095057 -0.057447 -0.013395 0.047655 0.111953 0.169069 0.257897 0.314497 0.197184 0.039104 0.002357 
0.000100 -0.000489 -0.001753 -0.012114 -0.021340 -0.020479 0.002189 0.058435 0.114310 0.152499 0.188982 0.227900 0.188853 0.137238 0.051690 -0.041042 -0.106584 -0.152974 -0.144191 -0.135457 -0.090086 -0.039329 0.009876 0.104405 0.175827 0.138600 0.032028 0.001880 
0.000064 -0.000279 -0.001629 -0.008068 -0.010183 -0.007441 0.035855 0.073976 0.122692 0.150779 0.198026 0.272079 0.271257 0.209428 0.067459 -0.053803 -0.138215 -0.217652 -0.253548 -0.277776 -0.262940 -0.220095 -0.166535 -0.078454 0.008080 0.047703 0.014880 0.001287 
0.000100 -0.000252 -0.001332 -0.002959 -0.003315 0.005463 0.052316 0.087828 0.117176 0.117616 0.227582 0.315548 0.308626 0.215116 0.048001 -0.088750 -0.185358 -0.216239 -0.226785 -0.239004 -0.229718 -0.226984 -0.205738 -0.148725 -0.072272 -0.000861 0.003327 0.000067 
0.000100 -0.000193 -0.000761 -0.000679 0.001640 0.007526 0.040216 0.081134 0.120887 0.147323 0.229916 0.283842 0.263150 0.149259 0.009594 -0.126117 -0.184876 -0.167884 -0.131047 -0.113787 -0.112318 -0.132030 -0.148603 -0.126529 -0.065341 -0.006556 0.000160 0.000070 
0.000723 -0.000146 -0.000412 0.001113 0.001744 -0.011465 -0.002116 0.017148 0.069860 0.139884 0.219162 0.187796 0.168649 0.083515 -0.043779 -0.144296 -0.165043 -0.127010 -0.090690 -0.058689 -0.037753 -0.065868 -0.078764 -0.082784 -0.040411 -0.006111 -0.000323 0.000094 
0.000301 -0.000071 -0.000389 0.001002 -0.007942 -0.033664 -0.036331 -0.053560 -0.025927 0.037953 0.083100 0.073591 0.049952 -0.026796 -0.108884 -0.174979 -0.158720 -0.100016 -0.030071 -0.016187 -0.014413 -0.033164 -0.051497 -0.034256 -0.014634 -0.005980 -0.001437 0.000014 
0.000085 -0.000007 -0.000822 0.000032 -0.004781 -0.029548 -0.055605 -0.116515 -0.159013 -0.133832 -0.105636 -0.091461 -0.085922 -0.110063 -0.124197 -0.138860 -0.126169 -0.055187 -0.004957 0.009226 0.012207 -0.014779 -0.024182 -0.003592 0.007666 -0.005028 -0.001525 0.000048 
0.000100 0.000016 -0.001626 -0.001578 -0.006303 0.001584 0.031356 -0.074485 -0.179377 -0.208023 -0.221832 -0.199531 -0.197870 -0.166536 -0.113745 -0.067427 -0.029933 -0.006400 0.023474 0.019415 0.024795 0.015258 -0.013549 0.019223 0.022861 -0.003368 -0.001250 -0.000052 
0.000073 0.000076 -0.001498 -0.001901 -0.004654 0.031127 0.135263 0.058053 -0.076844 -0.146485 -0.195683 -0.186346 -0.134565 -0.072837 -0.010727 0.010752 0.012589 0.016995 0.032616 0.032614 0.038762 0.020934 0.019258 0.042084 0.025292 -0.001831 -0.000928 -0.000277 
0.000100 0.000065 0.002051 -0.004337 -0.009776 0.036174 0.164515 0.153422 0.090007 0.021553 -0.018138 -0.008494 -0.000514 0.020314 0.028941 0.019497 0.007719 0.008504 0.043793 0.038178 0.033909 0.028906 0.046973 0.047824 0.017095 -0.000885 -0.000964 -0.000041 
0.000100 0.000072 -0.000051 -0.005221 -0.014388 0.021999 0.118207 0.165117 0.178257 0.148718 0.116056 0.104401 0.047081 0.017036 -0.022450 -0.018588 0.014364 0.028367 0.052092 0.041819 0.026645 0.030661 0.063051 0.047365 0.010233 -0.000147 -0.000209 0.000210 
0.000100 0.000062 -0.002199 -0.005923 -0.013520 -0.008403 0.050403 0.110962 0.153477 0.156916 0.125812 0.100861 0.031702 -0.002074 -0.003819 0.006506 0.039164 0.052658 0.046007 0.038658 0.058086 0.061071 0.055064 0.032419 0.005543 0.000020 -0.000011 0.000094 
0.000100 0.000096 -0.001294 -0.004718 -0.004164 -0.015683 -0.015983 0.018120 0.063698 0.089897 0.085641 0.105770 0.101148 0.089149 0.081899 0.076891 0.091557 0.060525 0.063848 0.064383 0.054191 0.038275 0.034383 0.019082 0.003941 0.001046 0.000039 0.000089 
0.000100 0.000100 -0.000136 -0.000275 -0.000383 -0.004432 -0.004331 -0.003850 0.029707 0.063651 0.094961 0.123066 0.132510 0.114908 0.109122 0.088414 0.066433 0.036486 0.022839 0.035187 0.034417 0.011894 0.009848 0.010312 0.004213 0.001180 0.000058 0.000100 
0.000100 0.000100 0.000027 0.000170 -0.002509 -0.005708 -0.007635 0.002780 0.022325 0.053648 0.068688 0.094466 0.120491 0.112117 0.085869 0.045315 0.012968 0.011322 0.011644 0.009675 0.004509 0.001672 0.006087 0.006543 0.003567 -0.000317 0.000087 0.000100 
0.000100 0.000100 0.000099 0.000698 0.000314 -0.004275 -0.008688 -0.012903 -0.004354 0.008385 0.015196 0.020673 0.024828 0.023417 0.003919 0.001889 0.000682 0.004577 -0.001305 -0.004384 -0.003847 -0.000980 0.003097 0.004709 0.002906 0.000098 0.000097 0.000100 
0.000100 0.000100 0.000100 0.000087 -0.000095 -0.000794 -0.002195 -0.004684 -0.006752 -0.006567 -0.005713 -0.002978 -0.004396 -0.009345 -0.013433 -0.008321 -0.005504 -0.007494 -0.007001 -0.002624 -0.000131 0.000534 0.000276 0.000004 0.000100 0.000100 0.000100 0.000100 
0.000100 0.000100 0.000100 0.000100 0.000098 0.000041 -0.000009 -0.000183 -0.000266 -0.000219 -0.000456 -0.000671 -0.001473 -0.001930 -0.003024 -0.002317 -0.001698 -0.001480 -0.001586 -0.000829 -0.000355 -0.000206 -0.000147 0.000070 0.000100 0.000100 0.000100 0.000100 

0.000100 0.000100 0.000100 0.000100 0.000100 0.000100 0.000100 0.000100 0.000100 0.000100 0.000100 0.000100 0.000483 0.000892 0.000049 0.000098 0.000100 0.000100 0.000100 0.000100 0.000100 0.000100 0.000100 0.000100 0.000100 0.000100 0.000100 0.000100 6
0.000100 0.000100 0.000100 0.000100 0.000100 0.000123 0.002061 0.005229 0.006844 0.006264 0.006812 0.006263 0.007306 0.008721 0.006577 0.004950 0.003612 0.003772 0.002862 0.003420 0.003066 0.002185 0.000659 0.000360 0.000100 0.000100 0.000100 0.000100 
0.000100 0.000100 0.000102 0.000093 0.000193 0.000224 0.002948 0.009136 0.019141 0.025188 0.036452 0.039977 0.053096 0.067344 0.080849 0.077072 0.080187 0.078897 0.075284 0.059726 0.037425 0.026324 0.013607 0.003991 -0.000428 -0.001163 0.000100 0.000100 
0.000100 0.000100 0.000103 0.000262 0.001022 0.001360 0.005635 0.012063 0.019626 0.024869 0.038924 0.057517 0.073204 0.102328 0.130926 0.147560 0.165836 0.185748 0.186185 0.169290 0.129272 0.091873 0.055969 0.027877 0.012650 0.000759 0.001448 0.000100 
0.000100 0.000100 0.000095 0.000347 0.001275 0.000958 0.002639 0.007510 0.010329 0.009997 0.020320 0.005952 0.000434 0.016928 0.043123 0.055158 0.108367 0.153458 0.183717 0.195139 0.165444 0.115775 0.076084 0.045792 0.016804 0.005281 0.000657 0.000801 
0.000100 0.000100 0.000135 -0.000706 0.001480 -0.003455 -0.006993 -0.011661 -0.003602 -0.010388 -0.014066 -0.061273 -0.062082 -0.071894 -0.053876 -0.024902 0.013244 0.052295 0.098255 0.117095 0.087802 0.057663 0.040254 0.029998 0.015027 0.003371 0.002269 0.001112 
0.000100 0.000100 0.000217 -0.002965 -0.002848 -0.010409 -0.018509 -0.026900 -0.032738 -0.026845 -0.062822 -0.089737 -0.101409 -0.110717 -0.113086 -0.087914 -0.064051 -0.058008 -0.060965 -0.047362 -0.040958 -0.028812 -0.020084 -0.016145 -0.012048 -0.003171 -0.000022 0.001000 
0.000095 0.000044 -0.000160 -0.005329 -0.008083 -0.022303 -0.033065 -0.039592 -0.046109 -0.053941 -0.080739 -0.099155 -0.122239 -0.142980 -0.126118 -0.094156 -0.125529 -0.162323 -0.194253 -0.189119 -0.141453 -0.108398 -0.083804 -0.063070 -0.029891 -0.016290 -0.003265 0.000273 
0.000080 0.000000 -0.000639 -0.006310 -0.013382 -0.029015 -0.042323 -0.052017 -0.048589 -0.057611 -0.086286 -0.097232 -0.108561 -0.120413 -0.102715 -0.120250 -0.184081 -0.253226 -0.300656 -0.275586 -0.214087 -0.162937 -0.127131 -0.090910 -0.052404 -0.025974 -0.006763 -0.000763 
0.000097 -0.000074 -0.000981 -0.008143 -0.015631 -0.030345 -0.038890 -0.035963 -0.026427 -0.043276 -0.058376 -0.071596 -0.071602 -0.065026 -0.067932 -0.141918 -0.246148 -0.307443 -0.308481 -0.265761 -0.211718 -0.164216 -0.127766 -0.085168 -0.055151 -0.028747 -0.007929 -0.000304 
0.000100 -0.000149 -0.001409 -0.007529 -0.013569 -0.020795 -0.023087 -0.008104 0.007272 -0.005626 -0.020344 -0.020287 -0.021779 -0.002500 -0.073422 -0.196007 -0.273492 -0.277817 -0.252995 -0.217475 -0.156658 -0.101170 -0.064253 -0.037423 -0.029440 -0.024625 -0.007774 -0.001023 
0.000090 -0.000055 -0.000567 -0.007069 -0.011315 -0.005489 0.000471 0.019179 0.034427 0.034691 0.013682 0.019676 0.042328 0.029456 -0.106367 -0.225336 -0.214050 -0.182416 -0.154640 -0.134399 -0.075786 0.002691 0.033941 0.042647 0.011028 -0.013456 -0.007279 -0.000638 
0.000100 -0.000082 -0.000493 -0.005879 -0.013017 0.001744 0.029612 0.047932 0.055612 0.058881 0.042966 0.074981 0.092674 0.014388 -0.122669 -0.145483 -0.091089 -0.068918 -0.069329 -0.067990 -0.005998 0.071540 0.103742 0.103300 0.050871 -0.007052 -0.006157 -0.000046 
0.000099 -0.000081 -0.000265 -0.004717 -0.013964 0.011959 0.050564 0.058839 0.064617 0.082540 0.094256 0.117582 0.086997 -0.019076 -0.068641 -0.011274 0.010476 -0.017782 -0.031278 -0.011725 0.032390 0.116692 0.142987 0.142603 0.078341 -0.002912 -0.006712 -0.000426 
0.000071 0.000044 -0.000025 -0.003726 -0.020751 0.007507 0.048591 0.060857 0.075939 0.105863 0.138759 0.155098 0.067865 -0.028112 0.010907 0.072098 0.063853 -0.008697 -0.038135 -0.014192 0.062673 0.138552 0.159583 0.141459 0.067504 0.001655 -0.009042 -0.000043 
0.000090 0.000080 -0.000062 -0.006687 -0.028133 -0.014380 0.034674 0.068294 0.098219 0.136276 0.181158 0.160117 0.062616 0.013373 0.065982 0.084214 0.036048 -0.019746 -0.036756 -0.013752 0.066271 0.131726 0.142632 0.103660 0.043050 -0.006496 -0.014115 -0.000947 
0.000098 0.000077 -0.000526 -0.009435 -0.037185 -0.039591 0.015680 0.074064 0.118784 0.173554 0.217225 0.182558 0.056669 0.036156 0.057814 0.018655 -0.051716 -0.062259 -0.008115 0.027918 0.052905 0.083890 0.096527 0.056921 0.015452 -0.018829 -0.013959 -0.001522 
0.000100 0.000075 -0.001215 -0.013495 -0.049440 -0.065010 -0.028552 0.064717 0.137723 0.190164 0.253867 0.225174 0.114845 0.061218 0.020194 -0.056855 -0.083835 -0.022937 0.055602 0.093375 0.078072 0.063986 0.055060 0.020018 -0.020198 -0.025742 -0.010203 -0.001027 
0.000097 0.000095 -0.001133 -0.016265 -0.054204 -0.086051 -0.070720 0.026995 0.125484 0.195029 0.268252 0.266154 0.185385 0.075433 0.006066 -0.015004 0.033343 0.091054 0.134479 0.116051 0.076375 0.056521 0.020469 -0.008486 -0.036689 -0.022105 -0.006886 -0.001549 
0.000100 0.000099 -0.001235 -0.014881 -0.050452 -0.086394 -0.093563 -0.028907 0.066366 0.160794 0.253566 0.305450 0.252595 0.136258 0.076987 0.099174 0.160300 0.171442 0.151819 0.101761 0.067254 0.032612 -0.011569 -0.032834 -0.033125 -0.019516 -0.005854 -0.000719 
0.000100 0.000092 -0.001067 -0.012942 -0.043312 -0.082097 -0.104239 -0.076223 -0.012172 0.074182 0.176224 0.253170 0.276016 0.248965 0.239280 0.227313 0.207294 0.159348 0.124668 0.054116 0.014594 -0.023610 -0.041103 -0.037101 -0.024720 -0.008553 -0.001092 0.000098 
0.000100 0.000040 -0.000591 -0.007393 -0.031772 -0.069496 -0.105369 -0.101151 -0.069162 -0.022750 0.055951 0.143089 0.244098 0.264346 0.236934 0.186924 0.130362 0.073053 0.029835 -0.027552 -0.054485 -0.051621 -0.037351 -0.027023 -0.014752 -0.004157 -0.000317 0.000098 
0.000100 0.000100 -0.000168 -0.002756 -0.015136 -0.038635 -0.076993 -0.099854 -0.112082 -0.114685 -0.088163 -0.071228 -0.020504 -0.000581 -0.014873 -0.032217 -0.064901 -0.083700 -0.092468 -0.081839 -0.060198 -0.040964 -0.030734 -0.018287 -0.007841 -0.002535 0.000031 0.000096 
0.000100 0.000100 0.000059 -0.000728 -0.004923 -0.013843 -0.033638 -0.061838 -0.096498 -0.129810 -0.161626 -0.186003 -0.180618 -0.166071 -0.166417 -0.162786 -0.149739 -0.126155 -0.084481 -0.060850 -0.039114 -0.027888 -0.015462 -0.008558 -0.004144 -0.000900 0.000059 0.000100 
0.000100 0.000100 0.000090 -0.000146 -0.001180 -0.004113 -0.010867 -0.023319 -0.041977 -0.062804 -0.082654 -0.098915 -0.105509 -0.111616 -0.108215 -0.095201 -0.078076 -0.062386 -0.043514 -0.031343 -0.020804 -0.013089 -0.006680 -0.003328 -0.001072 -0.000046 0.000087 0.000100 
0.000100 0.000100 0.000100 0.000060 -0.000427 -0.001517 -0.004225 -0.008153 -0.014959 -0.021123 -0.026205 -0.027973 -0.030574 -0.032643 -0.032609 -0.029626 -0.027045 -0.021732 -0.016948 -0.011666 -0.007685 -0.004509 -0.002083 -0.000936 -0.000272 0.000092 0.000090 0.000100 
0.000100 0.000100 0.000100 0.000090 -0.000035 -0.000278 -0.001128 -0.002219 -0.003845 -0.005033 -0.005906 -0.006087 -0.006491 -0.007249 -0.007727 -0.007351 -0.006952 -0.005984 -0.004607 -0.002845 -0.002016 -0.001306 -0.000383 0.000002 0.000100 0.000100 0.000100 0.000100 
0.000100 0.000100 0.000100 0.000100 0.000099 0.000060 0.000013 -0.000069 -0.000089 -0.000092 -0.000210 -0.000303 -0.000556 -0.000644 -0.000974 -0.000843 -0.000662 -0.000547 -0.000478 -0.000155 -0.000059 -0.000069 -0.000051 0.000086 0.000100 0.000100 0.000100 0.000100 

0.000100 0.000100 0.000100 0.000100 0.000100 0.000100 0.000100 0.000100 0.000100 0.000100 0.000100 0.000100 0.000096 0.000086 0.000094 0.000100 0.000100 0.000100 0.000100 0.000100 0.000100 0.000100 0.000100 0.000100 0.000100 0.000100 0.000100 0.000100 7
0.000100 0.000100 0.000100 0.000100 0.000100 0.000099 0.000058 -0.000018 -0.000158 -0.000211 -0.000103 -0.000320 -0.000431 -0.000277 -0.000188 -0.000403 -0.000668 -0.000256 0.000025 -0.000028 -0.000027 0.000055 0.000075 0.000093 0.000100 0.000100 0.000100 0.000100 
0.000100 0.000100 0.000100 0.000096 0.000096 0.000097 0.000037 -0.000246 -0.000901 -0.001702 -0.002133 -0.002413 -0.003215 -0.003616 -0.004326 -0.004661 -0.004994 -0.004240 -0.003348 -0.002221 -0.001061 -0.000583 -0.000224 0.000006 0.000056 0.000100 0.000100 0.000100 
0.000100 0.000100 0.000100 0.000088 0.000002 -0.000106 -0.000417 -0.001874 -0.003756 -0.006494 -0.009754 -0.013316 -0.014656 -0.017111 -0.018566 -0.020266 -0.019714 -0.017588 -0.013793 -0.009926 -0.006398 -0.003383 -0.001488 -0.000486 -0.000168 0.000092 0.000099 0.000100 
0.000100 0.000100 0.000100 0.000076 -0.000540 -0.001717 -0.002799 -0.007212 -0.013968 -0.022809 -0.033260 -0.044686 -0.058789 -0.072470 -0.079631 -0.084525 -0.080823 -0.069186 -0.056936 -0.043155 -0.030342 -0.017557 -0.009998 -0.004428 -0.001768 -0.000283 0.000030 0.000093 
0.000100 0.000100 0.000076 -0.000132 0.000161 0.000072 -0.007719 -0.013355 -0.025723 -0.040760 -0.064645 -0.096205 -0.130468 -0.164933 -0.184900 -0.191663 -0.182447 -0.170832 -0.145083 -0.115339 -0.084682 -0.053176 -0.033602 -0.021416 -0.010232 -0.002998 -0.000749 0.000080 
0.000100 0.000100 0.000843 0.000288 0.001584 0.004672 0.014541 0.023365 0.030445 0.016938 0.010400 -0.016660 -0.068902 -0.132675 -0.171668 -0.185583 -0.171858 -0.160111 -0.151471 -0.121602 -0.090525 -0.052607 -0.039919 -0.036185 -0.024333 -0.011405 -0.003210 -0.000266 
0.000165 0.000829 0.004294 0.010332 0.017005 0.034683 0.071945 0.108842 0.114931 0.127412 0.139214 0.132213 0.083045 0.014213 -0.016172 0.000181 0.032261 0.055319 0.042411 0.020842 0.007892 -0.012644 -0.024180 -0.028865 -0.029649 -0.019984 -0.004926 -0.000240 
0.000365 0.005469 0.016036 0.028831 0.044280 0.072005 0.116008 0.154714 0.159464 0.158257 0.164313 0.170516 0.161121 0.130624 0.148230 0.185669 0.221808 0.216984 0.161857 0.121591 0.070267 0.015327 0.000457 -0.025841 -0.037505 -0.023817 -0.006309 -0.000951 
0.000143 0.007579 0.021467 0.048531 0.073139 0.097603 0.108405 0.119617 0.127619 0.115699 0.125124 0.135132 0.140406 0.146788 0.191676 0.246017 0.304616 0.289574 0.218980 0.161199 0.093050 0.051774 0.017204 -0.024300 -0.034579 -0.019455 -0.002769 0.001041 
0.000103 0.007655 0.020964 0.051394 0.081358 0.093927 0.074470 0.068198 0.059622 0.059551 0.074586 0.069553 0.077368 0.134677 0.162053 0.223689 0.309844 0.301525 0.249564 0.169415 0.112900 0.076663 0.029608 -0.014777 -0.026863 -0.013044 -0.001993 0.000095 
0.000429 0.005109 0.019862 0.052183 0.078784 0.057708 0.044416 0.039985 0.034480 0.040361 0.011492 -0.007892 -0.005805 0.021343 0.033394 0.114627 0.219225 0.257078 0.239675 0.150700 0.103683 0.068481 0.026661 -0.014524 -0.019618 -0.007652 -0.002184 -0.000278 
0.000100 0.005461 0.020184 0.044656 0.068268 0.040857 0.014120 0.022079 0.019171 -0.026250 -0.104397 -0.142566 -0.172169 -0.199220 -0.173640 -0.030810 0.122591 0.182044 0.167827 0.104372 0.071564 0.030587 0.011114 -0.018840 -0.014760 -0.003245 -0.000693 0.000081 
0.000099 0.003962 0.011866 0.026568 0.043794 0.025761 -0.009536 -0.030884 -0.057742 -0.107628 -0.201422 -0.307018 -0.362320 -0.383575 -0.292708 -0.092770 0.071958 0.108169 0.104560 0.087301 0.058026 0.030004 0.005992 -0.012302 -0.006854 -0.000544 -0.000595 0.000095 
0.000089 0.002143 0.005746 0.011420 0.017944 0.014990 -0.021404 -0.056630 -0.098840 -0.170770 -0.262904 -0.352100 -0.407000 -0.402818 -0.260489 -0.058990 0.081479 0.099395 0.144711 0.132654 0.090525 0.055854 0.036355 0.015604 -0.001327 0.003192 -0.000263 0.000099 
0.000105 0.000054 0.001662 0.006406 0.003354 -0.010803 -0.024950 -0.071996 -0.133351 -0.183240 -0.234177 -0.291917 -0.316513 -0.290892 -0.148678 0.029578 0.099672 0.162332 0.179716 0.142254 0.102718 0.068394 0.038000 0.007266 -0.004924 -0.001225 -0.000658 0.000042 
0.000152 -0.000211 -0.000616 0.002256 0.002805 -0.015868 -0.032940 -0.062556 -0.114805 -0.153039 -0.196211 -0.224593 -0.201116 -0.153270 -0.033236 0.096000 0.124086 0.131569 0.122710 0.091607 0.037571 0.024241 -0.000658 -0.010599 -0.011229 -0.005655 -0.000725 0.000060 
0.000100 0.000065 -0.000525 -0.005702 -0.007479 -0.033390 -0.064812 -0.092222 -0.112012 -0.147225 -0.175680 -0.156328 -0.105462 -0.010938 0.082395 0.111809 0.070010 0.053024 0.042756 -0.008677 -0.037275 -0.038751 -0.038396 -0.026030 -0.014619 -0.003594 0.000223 -0.000048 
0.000014 0.000097 0.000509 -0.006987 -0.016947 -0.051035 -0.095102 -0.122824 -0.133430 -0.155173 -0.161123 -0.110880 -0.029818 0.072549 0.108906 0.065798 -0.011946 -0.018334 -0.033401 -0.079637 -0.086312 -0.083486 -0.066425 -0.044087 -0.020404 -0.002819 0.001096 -0.000016 
0.000100 0.000155 -0.000237 -0.008713 -0.023703 -0.061770 -0.101747 -0.130767 -0.145804 -0.153020 -0.127941 -0.082512 0.011956 0.079514 0.091835 -0.002127 -0.069315 -0.089299 -0.123804 -0.135819 -0.136131 -0.117195 -0.083198 -0.045604 -0.015584 -0.002409 -0.000045 0.000057 
0.000100 0.000093 -0.001743 -0.010719 -0.027254 -0.056905 -0.102861 -0.130562 -0.143681 -0.139392 -0.110422 -0.060358 0.009512 0.060539 0.036334 -0.044084 -0.098393 -0.116826 -0.157527 -0.164610 -0.145505 -0.108521 -0.073735 -0.039565 -0.012718 -0.001949 -0.000058 0.000092 
0.000099 0.000077 -0.001833 -0.011282 -0.024708 -0.046030 -0.079697 -0.109088 -0.107858 -0.095582 -0.077295 -0.027782 -0.004873 -0.006381 -0.027342 -0.054952 -0.071513 -0.104829 -0.139722 -0.149006 -0.120434 -0.080422 -0.055862 -0.028959 -0.010210 -0.002930 -0.000388 0.000100 
0.000099 0.000099 -0.001001 -0.008475 -0.014409 -0.019770 -0.037156 -0.041532 -0.036188 -0.038965 -0.027654 -0.029903 -0.028125 -0.036499 -0.016231 -0.013558 -0.032990 -0.079334 -0.116274 -0.118126 -0.093833 -0.059791 -0.039029 -0.020531 -0.008386 -0.003337 -0.000036 0.000100 
0.000100 0.000100 -0.000585 -0.003637 -0.000288 0.009190 0.023109 0.042398 0.033343 0.029581 0.042152 0.009416 -0.009704 0.004601 0.034240 0.032994 0.007392 -0.033346 -0.068096 -0.084083 -0.068517 -0.048715 -0.029620 -0.016647 -0.006856 -0.002783 -0.000013 0.000100 
0.000100 0.000100 0.000633 0.002341 0.012554 0.040088 0.065469 0.100345 0.116092 0.124236 0.119677 0.097968 0.077303 0.109093 0.127468 0.114099 0.077416 0.035777 -0.014273 -0.034797 -0.037954 -0.032301 -0.021899 -0.012844 -0.005336 -0.001995 0.000096 0.000100 
0.000100 0.000100 0.000060 0.003066 0.016607 0.031955 0.055672 0.097444 0.137303 0.150246 0.144509 0.143017 0.146572 0.166360 0.182365 0.174238 0.129364 0.084799 0.036099 0.004520 -0.014894 -0.011552 -0.006631 -0.003699 -0.000802 0.000097 0.000097 0.000100 
0.000100 0.000100 0.000100 0.000084 0.001142 0.006814 0.016201 0.030172 0.059387 0.079961 0.085997 0.084307 0.086597 0.101865 0.111750 0.114646 0.098911 0.070706 0.040123 0.020107 -0.001802 0.000184 0.003724 0.000588 0.000097 0.000100 0.000100 0.000100 
0.000100 0.000100 0.000100 0.000100 0.000152 0.000692 0.001157 0.002402 0.003595 0.004165 0.006704 0.007995 0.012255 0.019011 0.026532 0.024028 0.020992 0.018352 0.014389 0.006519 0.000710 0.001318 0.003881 0.000890 0.000100 0.000100 0.000100 0.000100 

0.000100 0.000100 0.000100 0.000100 0.000100 0.000100 0.000100 0.000100 0.000100 0.000100 0.000100 0.000100 0.000081 0.000049 0.000090 0.000100 0.000100 0.000100 0.000100 0.000100 0.000100 0.000100 0.000100 0.000100 0.000100 0.000100 0.000100 0.000100 8
0.000100 0.000100 0.000100 0.000100 0.000100 0.000100 0.000094 0.000059 -0.000064 -0.000151 -0.000201 -0.000232 -0.000203 -0.000306 -0.000381 -0.000510 -0.000712 -0.000372 -0.000161 -0.000175 -0.000167 -0.000137 0.000048 0.000091 0.000100 0.000100 0.000100 0.000100 
0.000100 0.000100 0.000100 0.000099 0.000092 0.000096 0.000049 -0.000202 -0.000853 -0.001968 -0.003355 -0.004363 -0.006444 -0.008577 -0.010553 -0.011559 -0.012960 -0.011207 -0.008848 -0.007338 -0.003720 -0.002332 -0.001075 -0.000211 -0.000118 0.000002 0.000100 0.000100 
0.000100 0.000100 0.000100 0.000078 0.000049 -0.000304 -0.001203 -0.003079 -0.005260 -0.010110 -0.016514 -0.024724 -0.032872 -0.043371 -0.050257 -0.054572 -0.061921 -0.059388 -0.043601 -0.035656 -0.022560 -0.010213 -0.004747 -0.000457 -0.001221 -0.000227 -0.000182 0.000100 
0.000100 0.000100 0.000174 -0.000034 -0.000982 -0.003600 -0.006820 -0.013076 -0.022700 -0.034879 -0.045180 -0.044923 -0.039247 -0.032648 -0.016304 -0.008623 -0.013382 -0.046798 -0.059606 -0.056345 -0.048438 -0.044647 -0.038903 -0.022170 -0.008026 -0.001398 0.000854 0.000161 
0.000100 0.000100 0.000027 -0.001567 -0.005682 -0.012360 -0.021942 -0.037566 -0.047493 -0.042377 -0.041073 0.005248 0.041595 0.070480 0.106587 0.125678 0.136312 0.122776 0.060808 0.021999 -0.011787 -0.033157 -0.041282 -0.042297 -0.023713 -0.003147 -0.000193 -0.000180 
0.000100 0.000100 -0.000202 -0.004072 -0.008890 -0.019198 -0.037421 -0.042448 -0.023081 -0.026705 -0.019291 0.017228 0.055143 0.061268 0.075619 0.108993 0.103085 0.089365 0.029216 0.029313 0.008025 0.021560 0.016206 0.002410 -0.013752 -0.004171 -0.002528 0.000822 
0.000093 -0.000256 -0.000653 -0.004521 -0.011224 -0.017393 -0.030217 -0.005012 0.012558 0.014371 0.013923 0.002719 -0.003996 -0.014353 -0.039169 -0.021501 -0.009541 -0.015884 0.011337 -0.001362 0.018757 0.056492 0.053338 0.062511 0.023652 -0.006538 -0.002255 0.000593 
0.000073 -0.000478 -0.001346 -0.003782 -0.006357 -0.001102 0.009792 0.046281 0.053093 0.074730 0.059295 0.032342 0.023324 -0.014177 -0.086401 -0.092578 -0.056801 -0.039145 0.022065 0.036175 0.049269 0.086611 0.110371 0.103724 0.051656 -0.005358 -0.001050 0.001017 
0.000096 -0.000653 -0.002255 -0.003596 0.001400 0.015976 0.043609 0.086263 0.113227 0.124387 0.120589 0.093099 0.041000 -0.021826 -0.108315 -0.169417 -0.128840 -0.056427 -0.009305 0.029764 0.061966 0.117045 0.135087 0.119580 0.041803 -0.010287 -0.001500 -0.000991 
0.000100 -0.000449 -0.001978 -0.003929 0.009517 0.021515 0.073048 0.116260 0.139195 0.161385 0.151489 0.099451 0.070521 0.006063 -0.092241 -0.166457 -0.146929 -0.082985 -0.016044 0.051494 0.080460 0.132355 0.145440 0.110156 0.040161 -0.000318 0.000846 0.000803 
0.000084 -0.000226 -0.001609 -0.005417 0.006298 0.026432 0.065692 0.116179 0.148702 0.154211 0.106222 0.075700 0.131788 0.137286 0.020379 -0.068456 -0.092953 -0.060222 0.006925 0.062335 0.105634 0.131102 0.138090 0.103660 0.064714 0.021291 0.007560 0.001128 
0.000100 -0.000098 -0.000949 -0.003484 -0.003760 0.012374 0.024349 0.047803 0.067977 0.067471 0.006503 0.039048 0.160080 0.200597 0.094016 0.031521 0.002652 -0.010343 0.015142 0.073537 0.104528 0.109369 0.086265 0.069889 0.041562 0.017644 0.007565 0.000407 
0.000098 -0.000003 -0.000483 -0.003764 -0.016238 -0.026534 -0.038951 -0.044404 -0.032205 -0.040263 -0.064096 0.035898 0.208434 0.206248 0.095964 0.099087 0.047464 -0.021834 -0.031581 -0.001117 0.012684 0.008449 0.017331 0.007300 0.005555 0.005648 0.001979 0.000017 
0.000037 -0.000160 -0.000242 -0.003291 -0.019608 -0.051317 -0.100281 -0.133460 -0.146070 -0.134000 -0.097836 0.069461 0.209197 0.207648 0.128518 0.091298 0.027912 -0.037425 -0.094093 -0.109534 -0.107578 -0.088975 -0.058615 -0.037136 -0.013733 -0.001256 -0.001271 0.000062 
0.000079 -0.000366 -0.000486 -0.003762 -0.019031 -0.061510 -0.116638 -0.149432 -0.142227 -0.120340 -0.064539 0.067780 0.190352 0.203919 0.105973 0.054065 0.004663 -0.085127 -0.136855 -0.153185 -0.158119 -0.128773 -0.090166 -0.053617 -0.022424 -0.004060 -0.003654 -0.000165 
0.000096 -0.000158 -0.001131 -0.005585 -0.024246 -0.067867 -0.105856 -0.092291 -0.045442 -0.014093 0.031379 0.120213 0.206477 0.149253 0.025767 0.003105 -0.006485 -0.094896 -0.156004 -0.164653 -0.137892 -0.121364 -0.089733 -0.047885 -0.024479 -0.008943 -0.003703 -0.000024 
0.000100 -0.000073 -0.001566 -0.009630 -0.030576 -0.067848 -0.080076 -0.028882 0.070294 0.128531 0.144043 0.194569 0.213463 0.086009 -0.039041 -0.061720 -0.029944 -0.068997 -0.106926 -0.097751 -0.075703 -0.084945 -0.058280 -0.037577 -0.018892 -0.014753 -0.003487 -0.000116 
0.000071 0.000079 -0.002056 -0.017124 -0.045548 -0.054254 -0.051738 0.017500 0.120457 0.173638 0.182378 0.173470 0.120262 0.000837 -0.095403 -0.072516 -0.061386 -0.066943 -0.064370 -0.043404 -0.034049 -0.048910 -0.029672 -0.027643 -0.019260 -0.011682 -0.001332 -0.000162 
0.000100 0.000066 -0.002696 -0.022298 -0.051359 -0.041078 -0.016915 0.050244 0.103465 0.132711 0.102182 0.036994 0.003765 -0.087079 -0.124464 -0.079094 -0.074974 -0.063555 -0.034926 0.000268 0.000109 -0.018261 -0.013526 -0.012066 -0.017658 -0.009296 -0.001007 0.000017 
0.000100 0.000038 -0.002965 -0.025612 -0.051511 -0.034172 0.008909 0.072543 0.065158 0.037807 -0.004028 -0.070107 -0.065550 -0.093458 -0.099894 -0.067700 -0.094510 -0.069083 -0.019215 0.012712 0.013082 0.008324 -0.010627 -0.013117 -0.017461 -0.007446 -0.000744 0.000056 
0.000094 0.000040 -0.002969 -0.020166 -0.047717 -0.036727 0.008361 0.044434 0.024478 -0.004101 -0.019535 -0.030459 -0.000789 0.020186 -0.007567 -0.036795 -0.055891 -0.031540 0.010058 0.018942 0.022612 0.007165 -0.004315 -0.014737 -0.014789 -0.005139 -0.000743 0.000094 
0.000095 0.000094 -0.002035 -0.011806 -0.032771 -0.047799 -0.024148 0.007238 -0.005933 -0.017349 0.031247 0.104443 0.171717 0.184775 0.128759 0.066181 0.041349 0.045489 0.056602 0.037290 0.019920 0.011530 0.001194 -0.005174 -0.005400 -0.001862 -0.000158 0.000089 
0.000100 0.000100 -0.000460 -0.004779 -0.024871 -0.057655 -0.084830 -0.068457 -0.026851 -0.006645 0.044786 0.119594 0.218447 0.255584 0.216926 0.181491 0.152655 0.110763 0.086332 0.057181 0.029116 0.013823 -0.000064 0.001162 -0.001360 -0.000846 -0.000213 0.000100 
0.000100 0.000100 0.000031 -0.004019 -0.016839 -0.039773 -0.064622 -0.072974 -0.047304 -0.029572 -0.011333 0.010974 0.054168 0.085579 0.096259 0.107517 0.108827 0.062984 0.048593 0.039767 0.011509 -0.000608 -0.006114 -0.003214 -0.001097 -0.000418 -0.000015 0.000100 
0.000100 0.000100 0.000099 -0.000864 -0.008877 -0.017616 -0.031695 -0.048445 -0.069013 -0.080466 -0.082311 -0.081748 -0.080220 -0.064127 -0.037847 -0.018166 -0.015926 -0.016114 -0.013000 -0.005135 -0.005138 -0.005478 -0.003147 -0.002069 -0.000574 0.000036 0.000023 0.000100 
0.000100 0.000100 0.000100 0.000040 -0.000979 -0.002489 -0.004750 -0.007526 -0.012438 -0.017488 -0.020810 -0.017584 -0.019547 -0.020534 -0.020178 -0.019656 -0.016384 -0.013312 -0.009749 -0.005791 -0.003790 -0.002330 -0.000691 0.000074 0.000100 0.000100 0.000100 0.000100 
0.000100 0.000100 0.000100 0.000100 0.000080 0.000008 -0.000038 -0.000114 -0.000176 -0.000244 -0.000889 -0.000791 -0.001686 -0.001684 -0.002226 -0.001935 -0.001217 -0.001016 -0.000949 -0.000366 -0.000253 -0.000138 -0.000130 0.000066 0.000100 0.000100 0.000100 0.000100 

0.000100 0.000100 0.000100 0.000100 0.000100 0.000100 0.000100 0.000100 0.000100 0.000100 0.000100 0.000100 0.000047 -0.000035 0.000078 0.000099 0.000100 0.000100 0.000100 0.000100 0.000100 0.000100 0.000100 0.000100 0.000100 0.000100 0.000100 0.000100 9
0.000100 0.000100 0.000100 0.000100 0.000100 0.000099 0.000021 -0.000109 -0.000245 -0.000289 -0.000282 -0.000468 -0.000671 -0.000737 -0.000587 -0.001027 -0.001742 -0.000850 -0.000205 -0.000266 -0.000198 -0.000025 0.000058 0.000082 0.000100 0.000100 0.000100 0.000100 
0.000100 0.000100 0.000100 0.000096 0.000091 0.000093 -0.000031 -0.000376 -0.000898 -0.001390 -0.002472 -0.003419 -0.005500 -0.007300 -0.008716 -0.009928 -0.011440 -0.009646 -0.007502 -0.005167 -0.002361 -0.001382 -0.000666 -0.000108 0.000054 0.000098 0.000100 0.000100 
0.000100 0.000100 0.000099 0.000072 0.000080 -0.000069 -0.000605 -0.001524 -0.003005 -0.005323 -0.008691 -0.013052 -0.017791 -0.024450 -0.031264 -0.036260 -0.036302 -0.031656 -0.023094 -0.017410 -0.010869 -0.005936 -0.002747 -0.001062 -0.000251 0.000064 0.000096 0.000100 
0.000100 0.000100 0.000100 0.000048 -0.000271 -0.001593 -0.003268 -0.006263 -0.011881 -0.021165 -0.032263 -0.045645 -0.066147 -0.088422 -0.108867 -0.120820 -0.121199 -0.104221 -0.080682 -0.062166 -0.042830 -0.029598 -0.017530 -0.008341 -0.003504 -0.000810 -0.000138 0.000086 
0.000100 0.000100 0.000084 -0.000258 -0.002213 -0.008779 -0.019466 -0.031965 -0.048718 -0.072187 -0.081377 -0.073676 -0.090627 -0.128098 -0.181698 -0.218147 -0.250308 -0.247404 -0.218370 -0.174794 -0.134642 -0.098177 -0.071884 -0.045956 -0.023345 -0.007166 -0.000929 0.000078 
0.000100 0.000100 -0.000274 -0.001569 -0.009658 -0.027127 -0.052334 -0.085770 -0.113257 -0.106355 -0.085864 -0.048656 -0.015894 0.044534 0.096534 0.099644 0.082945 0.035264 -0.013935 -0.069810 -0.108886 -0.140741 -0.138228 -0.102104 -0.053376 -0.019615 -0.004201 -0.000575 
0.000086 -0.000164 -0.001583 -0.007100 -0.025075 -0.055986 -0.093862 -0.128584 -0.117706 -0.101083 -0.057173 0.017023 0.109599 0.219166 0.331243 0.401161 0.341857 0.193762 0.071901 -0.011354 -0.063704 -0.125988 -0.155301 -0.129825 -0.076034 -0.032575 -0.008262 -0.000381 
0.000043 -0.002144 -0.006570 -0.016984 -0.040660 -0.072834 -0.090463 -0.109269 -0.074204 -0.060371 -0.017642 0.042399 0.093485 0.165571 0.214642 0.235044 0.166343 0.070126 0.018840 -0.030587 -0.046761 -0.087337 -0.136835 -0.117446 -0.074942 -0.032942 -0.007620 -0.000608 
0.000091 -0.003058 -0.008995 -0.021010 -0.051374 -0.063903 -0.034458 -0.018239 0.003939 0.020193 0.056640 0.089668 0.084489 0.046791 0.047856 0.038402 -0.032254 -0.020849 -0.002489 -0.005712 -0.007407 -0.055718 -0.105707 -0.089525 -0.059152 -0.024718 -0.005631 -0.000266 
0.000099 -0.003057 -0.009209 -0.019154 -0.035661 -0.008744 0.039605 0.080161 0.094435 0.091853 0.125755 0.124754 0.023998 -0.067647 -0.073667 -0.059578 -0.050405 0.009480 0.052998 0.086294 0.067461 0.010778 -0.042381 -0.049549 -0.035526 -0.016616 -0.004869 -0.000678 
-0.000055 -0.002185 -0.009369 -0.010757 -0.002009 0.058661 0.111781 0.151984 0.140552 0.129339 0.148809 0.075333 -0.064310 -0.100752 -0.042265 0.019994 0.056275 0.140425 0.166126 0.186282 0.175613 0.090550 0.012636 -0.019045 -0.019779 -0.010471 -0.004052 -0.000622 
0.000100 -0.002076 -0.008015 0.000803 0.034775 0.093322 0.139749 0.152115 0.127576 0.138251 0.113322 -0.001350 -0.081623 -0.020384 0.075347 0.131045 0.166719 0.235763 0.232155 0.234194 0.183776 0.105693 0.035335 -0.004681 -0.020177 -0.008801 -0.002734 -0.000013 
0.000098 -0.001271 -0.004509 0.010375 0.058294 0.100038 0.129128 0.141105 0.111900 0.095271 0.050217 -0.009904 -0.015711 0.065436 0.129027 0.157549 0.225065 0.262769 0.243525 0.190363 0.122265 0.054964 -0.001220 -0.035800 -0.032112 -0.009268 -0.002190 0.000032 
-0.000150 -0.000586 -0.002002 0.013300 0.049231 0.063633 0.091460 0.091228 0.082473 0.049918 0.011760 -0.022421 -0.007859 0.009173 0.038461 0.092436 0.211426 0.229120 0.142365 0.063749 0.012050 -0.038060 -0.059927 -0.069468 -0.042826 -0.009207 -0.000707 0.000092 
0.000016 0.000065 -0.001705 0.007000 0.032752 0.030941 0.026756 0.037754 0.068076 0.050227 0.022249 -0.006100 -0.023817 -0.067707 -0.074506 0.037236 0.190181 0.176560 0.042731 -0.031620 -0.067482 -0.093446 -0.095793 -0.080986 -0.044837 -0.011372 -0.002656 -0.000068 
0.000086 -0.000125 -0.001477 0.002205 0.010636 -0.002848 -0.014277 -0.004092 0.048178 0.065037 0.084694 0.064392 -0.000427 -0.084261 -0.078687 0.052764 0.152552 0.109693 -0.026539 -0.094289 -0.094555 -0.112428 -0.100786 -0.082662 -0.047606 -0.012865 -0.003532 0.000036 
0.000100 0.000012 -0.001996 -0.004876 -0.017436 -0.037589 -0.042071 -0.027657 0.002927 0.034462 0.045663 0.032236 -0.021032 -0.068560 -0.026389 0.081860 0.067911 0.009247 -0.061551 -0.082004 -0.085391 -0.105822 -0.107167 -0.078348 -0.046090 -0.011546 -0.002862 -0.000113 
0.000337 0.000082 -0.001646 -0.012486 -0.035474 -0.066593 -0.084306 -0.083456 -0.064957 -0.049729 -0.043004 -0.056455 -0.096914 -0.079006 0.005626 0.034862 -0.010115 -0.051714 -0.075482 -0.055112 -0.055888 -0.088869 -0.091407 -0.067205 -0.032044 -0.007061 -0.000628 -0.000080 
0.000100 -0.000043 -0.003103 -0.015359 -0.038855 -0.072162 -0.105455 -0.127352 -0.143993 -0.162386 -0.169091 -0.163866 -0.150360 -0.081883 -0.030289 -0.029544 -0.065543 -0.087251 -0.082326 -0.035407 -0.047357 -0.071647 -0.067925 -0.048354 -0.017138 -0.003378 -0.000181 0.000059 
0.000100 -0.000107 -0.002674 -0.014682 -0.036125 -0.062439 -0.106141 -0.150534 -0.186377 -0.218178 -0.222401 -0.207161 -0.171772 -0.103093 -0.074680 -0.083840 -0.095467 -0.107221 -0.084340 -0.038156 -0.047911 -0.047258 -0.040800 -0.029472 -0.005460 0.000589 -0.000127 0.000085 
0.000099 -0.000026 -0.001969 -0.010955 -0.024519 -0.052515 -0.096822 -0.137300 -0.172028 -0.186823 -0.195908 -0.198290 -0.155200 -0.123204 -0.094052 -0.114050 -0.130683 -0.123741 -0.078445 -0.051621 -0.029823 -0.015394 -0.012884 -0.009610 0.003817 -0.001749 -0.000898 0.000100 
0.000099 0.000095 -0.001271 -0.005407 -0.015820 -0.039770 -0.071958 -0.105293 -0.115653 -0.128603 -0.134932 -0.123345 -0.111630 -0.106459 -0.106398 -0.144484 -0.135419 -0.103971 -0.070943 -0.048777 0.005470 0.027305 0.019393 0.010704 0.007141 0.000060 -0.000057 0.000100 
0.000100 0.000100 -0.000435 -0.001369 -0.010710 -0.024706 -0.042302 -0.046850 -0.040580 -0.064689 -0.066233 -0.063638 -0.083788 -0.098227 -0.112451 -0.124026 -0.099936 -0.047631 -0.020516 0.022340 0.059484 0.068012 0.049386 0.021237 0.008515 -0.000586 0.000003 0.000100 
0.000100 0.000100 -0.000070 -0.002181 -0.005946 -0.010151 -0.009885 0.010514 0.025782 0.016180 0.035703 0.020899 -0.007738 -0.036062 -0.037890 -0.016250 0.015166 0.072525 0.096500 0.100727 0.117093 0.096196 0.056454 0.025111 0.004058 -0.001186 -0.000264 0.000100 
0.000100 0.000100 0.000091 -0.000950 -0.002297 0.002640 0.012937 0.039142 0.066369 0.078263 0.108854 0.117690 0.118792 0.107846 0.101811 0.091622 0.120246 0.144151 0.146059 0.121619 0.110770 0.077618 0.036457 0.011731 0.002552 -0.000222 -0.000285 0.000100 
0.000100 0.000100 0.000100 0.000269 0.001681 0.001389 0.007330 0.012190 0.009664 0.018880 0.029037 0.034100 0.048306 0.051169 0.049799 0.032071 0.030520 0.037613 0.045144 0.030923 0.034767 0.021612 0.006115 0.001171 0.000099 0.000100 0.000100 0.000100 
0.000100 0.000100 0.000100 0.000100 0.000086 -0.000011 -0.000091 -0.000419 -0.000912 -0.000825 -0.000354 -0.001075 0.001757 -0.003050 -0.002932 -0.006976 -0.007997 -0.006373 -0.002136 0.000547 0.003785 0.002295 0.000643 0.000040 0.000100 0.000100 0.000100 0.000100 

